881 200
전자파 0.00074037904 -0.00028466064 -0.0020959529 0.00024670007 0.0018477271 3.632109e-05 -0.0005059052 -0.0015017103 -0.0016712449 -0.00034991957 -0.0016418808 -6.295303e-05 0.0009618512 -0.0020119874 -0.0011724358 -0.00039435693 -0.00091457827 0.00018198953 0.0015069493 -0.002357592 0.002149404 -0.0019525215 0.0014301058 -0.00021898918 -0.0001884771 -0.0015114904 0.0021293173 -0.0016188899 0.0003227949 0.0013033757 7.1130264e-05 -0.0014282496 -0.0011906537 0.0015446629 -9.466956e-05 0.002377906 9.847483e-05 -0.0016209244 -0.00015502589 -0.0017444931 0.0013310147 2.0230093e-05 -0.0006941997 0.00079968385 0.0016642379 -0.00094657415 -0.0022506332 -0.00015357736 0.0019093446 0.00023089508 -0.00075014593 0.0023641288 3.336656e-06 0.001150545 0.00039652752 0.00014305396 -0.00042680654 -0.0018304324 0.00018118188 6.442541e-06 -0.001322988 0.0023058176 0.00049651216 0.002398253 -0.0011485124 0.0009538054 -0.0024075992 -0.0010231859 0.000112767026 -0.0015343591 -0.0011839013 0.002263219 0.0010747958 -0.0007390742 0.0010161194 -0.001254056 -0.0022308703 -0.0002674089 -0.0013628443 0.0020550839 0.0023665854 -0.0007049262 0.0002462959 -0.0023011768 0.0014507102 0.0012016714 0.00053027907 0.001666405 0.00036971722 0.001497188 0.00010383517 -0.0016741996 0.00080077414 -0.0017583292 -0.0018905292 0.00044206274 -0.00015469975 -0.0005787766 -0.0009493329 -0.0016960499 -0.0025025334 -0.0016666392 -0.00036437917 0.0022788718 -0.002141615 0.0006225884 0.0007903631 0.001171003 -0.00015077378 0.001999243 -0.000964277 0.00077021174 -0.000424072 0.0007140986 0.0014760392 -0.002052844 0.0024810173 -0.00045142247 -3.6033794e-05 0.0001351642 0.0014783969 -0.001149132 -0.0024210892 0.0013230799 -0.00063615607 0.0008422048 0.0010396832 -0.0018851558 -0.0011334919 -0.0021433143 0.00070430373 -0.0010628726 -0.00039934964 -6.907069e-05 -0.00060737674 0.0013267305 0.0018320046 -0.0004390875 -0.0023990362 -0.0017980476 0.0017480925 -0.0019753093 -0.0021269573 -0.0012460129 -0.00078401936 0.002415307 -0.001301231 0.0014079992 -0.00025554522 0.00050417904 -0.0015473306 0.0009958335 -0.0012177672 -0.001515654 0.0008380088 0.0005257773 -0.0024831393 0.0013650574 -0.0009210113 0.0019466161 -0.002394153 0.00014170757 0.0009620176 -0.0019661873 -0.0007136314 0.0009796178 0.0018497445 7.6893644e-05 0.0021773446 -0.0019192903 0.00078886317 0.001431779 -0.0022200008 -0.0016132448 0.0012695807 0.0010872725 -0.0016356889 0.0012090859 -0.00071943365 -0.00062288507 0.0014492666 0.00026593663 -0.0009672392 -0.0005136928 0.00024467887 -0.00092560926 -0.0014714105 -0.0009878766 0.0021310658 -0.0017441042 -0.000272236 0.0023304713 0.0012325923 -0.0018557739 0.0023493697 0.0007561441 0.0007573887 -0.00235047 0.0016270272 0.00060994935
있습니다. -0.0019118049 -0.0009840311 -0.0024030802 -0.0006174129 -0.0005895745 0.000115690316 0.00093629427 -9.1099246e-05 0.001545088 -0.0014830324 0.00037000744 -0.000919631 5.8622558e-05 -0.0010781321 0.0009549829 -0.000973673 0.001992352 -0.0021284153 -0.0023462307 0.002334846 0.0017112071 -0.0012924251 0.0023896222 -0.0019613502 0.0020375615 0.0016539358 -0.0013738584 -0.0014087687 0.00015264914 0.0022202265 0.0008106758 0.0019316715 -3.276313e-06 -0.0014916748 -0.0011536673 0.0020450263 0.001225296 -0.0010472222 7.323144e-05 0.00079838675 -0.001615812 -3.3930523e-06 -0.0018373893 -0.00027958534 -0.0014426591 0.0018699253 -0.0013614274 0.0004719375 0.0022830984 -0.0024315026 -0.0004611343 0.00016088829 0.0022229722 -0.0010138889 -0.0012972403 0.0006417343 -0.00038077953 -0.0011710951 -0.001647468 0.00083349255 0.0016402141 -0.0018840078 -0.0010150773 -0.0009141832 0.00014815257 -0.0022286964 -0.0005024302 -0.0013887457 0.0006661656 0.0024808017 0.0006302399 0.0002626729 0.0011108269 -0.0018753993 -0.00054049987 0.00026210016 0.0006922335 0.00039148735 5.6060693e-05 0.0009080058 -0.0016916832 -7.445519e-05 0.00012782346 0.0019565516 -0.0017084744 0.00017818851 -0.0014453344 0.0024331587 -0.0011267889 0.00018687495 0.00064659974 -0.001151402 0.0012874841 0.0013452284 0.0009088206 -0.0012947755 0.0017220707 -0.00029068755 0.0016899172 -3.2760177e-05 -0.0010082431 0.0017818284 -0.00089135073 -0.0023413703 0.001302307 0.002114269 0.0015497375 -0.0005234958 0.00021349704 -0.0016427968 0.001597662 -0.00197563 -0.0015162337 -0.0012414558 -0.0022589958 0.001771149 0.0016840289 0.0023786991 0.0013478193 9.9227866e-05 -9.9193654e-05 0.0020861952 0.001355169 -0.0020235803 -0.0021075292 -0.0019817485 -0.0019952313 -0.0018721792 0.002233975 0.0011086419 -0.0012524663 0.0012610573 -0.0004504954 -0.00014318097 0.0012268755 -0.0010684374 0.0012958319 -0.0007716403 -0.00048671282 -0.0010592982 -0.0018895 -0.00015106493 -0.0002060178 -0.0008161675 -0.001438059 -0.0016562649 0.0015306907 0.0011560523 0.0017648147 0.00250487 0.0018699582 -0.0011637764 -0.00034160688 -0.0001850712 0.0021787116 -0.00084141514 0.00242069 -0.0023018064 0.0012797748 0.001751496 0.0011587094 0.0015475232 -0.00063908193 0.0007308459 -0.0012284537 0.0005496392 0.00046459574 -0.0009134139 0.0006597284 -0.0024495374 0.00021421415 0.0016490159 -0.000733074 1.999954e-05 -0.0023085347 -0.00039854302 -0.00102278 0.0012042712 -0.00062979973 0.0010765333 0.0014376787 0.0010862492 -0.0012558097 0.0018557927 -0.0008052867 0.0008892131 8.7510736e-05 0.00063043117 -0.00020403648 0.0004921022 0.0006499546 0.00130852 0.00034046726 0.0010981536 0.0010928492 -0.0012739934 0.00033855543 0.00031450522 0.0012691094 0.0022377048
전자파는 0.0020921736 0.0012564106 -0.00089568447 0.00068981573 0.00023539171 0.0010845496 -0.0010207471 -0.001573508 0.0024537179 -0.0018288444 -0.0015373909 -0.0022945572 0.0023261686 -0.0015608078 -0.00038946528 0.0017426687 0.0016158989 -0.00049077714 -0.0017957295 0.0017477929 -0.00040329059 0.0016741847 0.00053030765 -0.0006529188 -0.00090655516 -0.0013072507 0.0022211461 -0.0018658281 0.0023309889 0.0022588393 0.0013393309 0.0013435902 -0.00030700673 -0.0011143393 0.0022151037 -0.0009823068 -0.0016989623 0.0013948649 0.0012020677 -0.001419837 -0.0011096202 0.0024239805 0.00016465448 -0.0010712029 -0.0012802164 -0.0024004057 -0.0024762447 -0.001780112 0.0024695345 -0.00046130788 -0.002327147 0.0019593409 -0.0016454046 -0.0008929818 -0.0023286175 0.000561946 0.001755697 -0.00063732767 -0.0022972089 -0.0020617975 -0.0017530179 -0.0020619086 -0.0019215449 0.0014965871 0.00084697676 -0.0013607597 8.154094e-05 3.2881275e-05 -0.0011194695 0.0019997451 0.0024661962 0.0014200028 -0.002223806 -0.0018810912 -0.0011889748 0.0012759268 -0.0022819717 0.00052549684 -0.00039764526 -0.0010237426 -0.0017981448 0.000678308 -0.0016609645 0.0018990415 -0.0005821627 0.002031609 0.0009146847 0.0018026924 0.001456632 0.0013109702 0.00086707814 -0.00073097885 0.0012952616 -0.00023720779 0.0001551754 0.0021699795 0.0014948858 0.002494611 -0.0013088338 -0.000882403 -0.0018767545 0.0016746995 -0.0015657945 0.00087652664 -0.001201482 -0.001511546 -0.0022252002 -0.0006135725 -0.0018439607 0.001261531 -0.0019518976 0.0011042842 -0.0005206088 0.0019243257 0.0016742309 0.0010225031 0.0012549147 -0.0010772569 0.000884784 0.0011933929 -0.0023374667 0.0022236719 -0.0019732874 -0.0023276764 -0.0012631945 0.002005283 -0.0018662659 -0.0011071238 -0.0005343242 -0.001917503 0.00076832855 0.001563497 0.0019072467 -0.00037484313 -0.0017304806 -0.00162606 -0.0010393525 0.00014135624 0.0021829999 0.0011368821 0.002039758 0.0022444953 -0.00027492992 0.0011634497 -0.00089620997 0.0015613635 0.0005197528 0.0023796316 0.002054506 0.0010924683 -0.00069622404 0.0010181981 -0.00247753 0.0014472684 -0.0021487074 -0.0013387501 -0.0006814659 -0.0015324254 0.0007535947 -0.002306505 0.0020623188 0.00249551 -0.0021119118 -0.0015204226 -0.00013189398 0.00091829745 0.00031256393 8.3273596e-07 0.0006956757 0.0013164212 -0.0005238004 0.0008587004 -0.0017793237 0.00023654311 -0.0010524781 0.00031977502 0.000391945 0.002061629 -0.00076283014 -0.00064676744 -0.0011064337 0.00018015379 0.00041487304 0.00012962108 0.0024712663 0.000531916 0.0024103418 0.00080306124 -0.002452911 0.002063964 -0.00066106435 -0.0010726063 -0.001997305 -0.00018908728 -0.0019080504 -0.0022318924 -0.0010761518 0.0011031784 0.00048260493 0.0023732013
차폐(EMI 0.001124737 5.3912656e-05 0.0013474334 -0.0018133665 0.00088753516 0.0015171532 0.0006740083 0.00077441806 -0.0017151382 0.0016042397 0.0016565219 -0.00051436806 -0.0021258763 0.0015547684 -0.0016698347 0.0019483858 -0.0017493292 -0.0016280164 -0.0007612054 -0.0019178449 0.0010308272 -0.0022053977 -0.0016263939 0.0004329703 -0.00047703838 0.0014749381 0.0006114333 -0.0021933268 6.239322e-05 0.0022422802 0.002021551 -0.0011416884 -0.0013018016 0.002270464 -0.001748897 0.00026485824 0.0004404212 0.0019322832 0.0010867503 -0.00020791328 -0.0012395503 0.0020132875 0.0017100128 0.0005119119 -0.0020932173 0.0024641796 -0.001660299 -0.0002154907 0.0022941232 -0.00030247544 -0.0016710333 0.0020525996 0.0021660605 0.00043952264 -0.00018253956 -0.0023781348 0.00019075866 -0.0024825977 0.0024088547 0.0024013815 -7.581115e-05 0.0011550712 -0.0022165799 -0.00045742543 0.0013326178 -0.0006420769 -0.00054688216 -0.0016791582 -0.0007266166 0.0008101105 -0.001807329 0.00065477955 0.00026476406 -0.0016098125 -0.001952908 0.000808599 0.00044986987 -0.00224078 -0.0023796586 -0.0016671757 0.0014366044 -0.0024580078 0.0009831451 -0.00072697876 -0.00019771853 -0.0012198533 -0.0009592738 0.00020971765 0.0024094698 -0.0018189781 -0.0021566232 -0.0007925068 0.0013615789 0.00024404652 0.0023252862 0.00019053738 0.0020213649 -0.00024244549 0.0009133397 0.0011083954 0.0004953769 0.0011649833 -0.0009754244 0.0018764471 0.00014078444 -0.0019633544 0.00019337355 -0.00036994723 0.0013838849 0.0024790114 -0.0011192858 0.0013975077 -0.0020218354 -0.0008726369 0.00045231334 -0.0020139623 -0.0016339616 0.002406669 -0.00012232165 -0.0003251693 0.0019503937 -0.002062018 -0.0013550912 0.0013931849 -0.0016593985 -0.001611229 0.0017078405 0.0007707532 -0.00020557616 0.0011523751 0.00016922234 0.0023428819 0.0013300377 -0.0006585757 0.002371492 0.0019422193 -0.0007630083 -0.0022151917 -0.0018699954 -0.0005450794 0.0016597935 -0.0006879088 -0.0008663086 -0.0006710865 -0.0020632697 0.0019942918 -0.0010980509 -0.0019621246 0.0015894228 -0.001056096 0.0017126731 -0.0015547969 0.0020538745 0.0015785913 -0.0003237912 -0.0022271331 -0.0023546254 -0.0020722267 0.0010418204 0.00018607474 0.0007529214 -0.0006757632 -0.001337751 0.00087730394 0.001151377 0.0006623885 0.0018225437 -0.002304393 -0.0013415811 -0.0010837808 0.0012192697 -0.00078341004 0.000624178 -0.0007858607 -0.00069070014 -0.0015996651 -0.0012130984 0.0017949766 -0.002019067 0.0007181247 -0.0024578392 -0.0014533427 0.0011251012 0.0009260082 0.0009810298 -0.001979291 0.0014458132 -0.0014281439 0.0017422712 -0.00051139126 -0.0005163549 -0.0022914966 0.00074410246 -0.0020512708 0.0019334554 0.0005097799 -0.0021605338 -0.00052668044 0.0020616003 -0.00067123346
전자파를 0.00046028954 -0.0009791376 0.0013497421 -0.0010105827 -0.0009334521 -0.0017222626 0.0005860319 0.0013926455 0.00071745995 -0.0007399878 -0.0021731118 -0.0017740795 0.0023591018 0.0018687684 0.00067311944 0.0020259821 -0.0016281332 0.0024571596 0.0022582887 0.0011266465 0.00072177325 -0.0018966444 -0.0012056292 -0.0015126875 -0.001844259 0.0002052093 -0.0005807024 0.0015523928 -0.0008172522 -0.0014937661 -0.00068415736 0.0024975366 0.0004905122 -0.0014844094 0.0021335424 0.0012916521 -0.0018623136 -0.001572238 0.0019741396 6.4062733e-06 0.0005072322 0.0003689852 -0.0018738938 0.0019101099 -0.0011298358 0.002348738 0.0022484895 4.409916e-05 0.002263062 0.0017409889 0.0013253294 -0.0011266677 -0.0018965409 0.002328926 0.001146837 0.00026177985 -0.0013955681 0.00031510068 -8.8986024e-05 -0.0019727447 -0.0014889522 0.0022312514 0.001705075 0.0014256099 -0.0013458885 -0.0019470269 0.0015554001 -0.0018694799 0.001297266 -0.0011532053 0.00080773985 -0.0017470227 -0.0024666432 -0.00018042969 -0.00026592627 0.0018012271 -0.00026404852 0.0024547405 -0.0005269929 -0.0015906205 -0.0023717156 0.001982373 0.002354135 -0.0023723517 0.0013975352 -0.0021518108 0.002289997 -0.002235247 0.0015523856 -0.0005321054 0.00011878038 0.00046476413 -0.0021488105 0.00046209438 0.0010667377 0.0024885193 -0.0010139316 0.0018734154 0.0014115821 0.001243147 -0.0007395378 0.002085607 -0.0010491348 -0.00010062562 -0.0007400947 0.00043299337 0.0020743755 0.0009721852 8.812541e-05 0.0014586984 0.0007188055 0.0014554486 -0.0023578159 0.0022523887 -0.0015562364 -0.0018397935 -0.0010595392 0.0016048736 0.0012189192 0.00072904164 -0.0016382211 -0.0020131331 -0.0002203194 -9.744103e-05 -0.0024455166 0.0023039281 -0.001973857 -0.0023369496 0.0024943175 0.0018252651 -0.0015985084 -0.0004550987 0.001763968 0.0010261101 0.0014855389 6.830741e-05 -0.0006952603 -0.00044705943 -0.001637748 0.0006807212 0.0011535237 -0.0023633 0.0011824631 -0.0022700115 -0.0003013167 0.0011907733 0.0018000992 -0.0023853714 -0.0014883565 -5.5045035e-05 -0.00047757223 -0.0019674122 -0.0018712664 0.0009965282 0.0016796071 0.0020445765 -0.0024466002 0.0004377142 0.0014539226 7.460916e-05 0.00082259154 0.000895424 -2.459088e-05 0.0020393534 -0.00018600063 0.0015184478 0.0012469594 0.001424539 -4.403599e-05 0.0016954811 -0.0004955225 -0.0006126708 -0.0020906688 0.00069535617 0.0009595819 -0.0011707543 -0.0006548494 0.0008480361 -0.00016394991 0.00077914 0.0008945923 -0.0004392068 0.00054379494 -0.0007723362 -0.0024524352 -0.0012513772 -9.910577e-05 0.0015950165 -0.0017135945 -0.0006004214 0.0021462634 0.0018081918 0.0002923925 0.0019294837 -0.0012894275 0.0021422037 0.002143428 0.0017382791 -0.00059524324 -0.00079341774
수 0.0011142609 0.001743487 -0.00037557792 0.0007837938 0.0010262287 0.0019156578 -0.001505276 -0.0011518926 0.0020050728 9.434904e-05 -0.0021938214 -0.0022962797 -0.0016927487 -0.0013544259 0.0005371876 -0.001753369 0.0016467929 -0.0024041603 0.0023977377 0.00096554495 0.001837479 -7.331686e-05 0.0023197965 -0.0011342993 0.0014189081 0.00031827364 -0.0012115376 0.0020484321 -0.0014228796 0.0003319099 0.002013197 0.00047126476 0.0006267474 0.0023766593 -0.0024727955 -0.0020861905 -0.0011523836 0.00043846417 -0.00046995425 -0.0021177852 0.0015707737 -0.0024913014 -0.0006734678 -0.0012408362 0.0003737456 0.0020257689 -0.0009940797 -0.0014882411 -0.0014884089 0.00024513478 0.0012920011 -0.002372562 -0.00065434084 0.0023488298 0.0022966266 -0.0013394234 -0.0016773691 -0.0015501434 0.000320013 -0.0017286082 -0.0018920419 -0.0010594822 0.0020643037 0.0017968611 -0.0006790257 0.00082402525 -0.0017197245 0.00054496806 -0.001096705 -0.0019954673 -0.00086717226 0.0014706299 -4.983959e-05 -0.00090820825 -0.0015993679 0.0016626482 0.0017231137 -0.0010260196 0.002292211 -0.0011238798 -0.0018870012 0.000935021 -4.935885e-05 0.00031856736 0.0011717571 -0.0019260315 -0.00052916387 -0.0024953247 0.0023660155 0.00080422143 0.00064218824 -0.000141743 0.001356513 -0.0018243861 0.0023700267 -0.0022596456 -0.0019472772 -0.002334115 0.000491138 0.00058236986 -0.0011868889 -0.0014760258 0.0010882721 -0.00034045186 -0.002052317 0.00032023102 -0.0015289343 0.000549167 0.00037277694 0.0023867362 -0.0008999835 0.000617123 -0.0005777173 -0.0012488368 0.0002942523 0.0024960137 0.0016408996 -0.001955229 0.0015994591 -0.0012744988 -0.00062136946 -0.0013412922 -0.0024741497 -0.0012252524 0.0004288272 -0.00041128809 -9.98423e-06 0.0021808778 -0.0019648194 0.0002590417 0.0010303603 -0.0020883677 -0.0019905886 0.002417765 -0.00014960881 0.0024975778 0.001509575 -0.0024206846 -0.0024009426 0.0009862786 0.00040163888 0.0008870865 -0.0004083802 0.002216003 0.0024535595 -0.0007956184 -0.00045066501 0.0012702725 0.00077910465 0.0009669753 -0.0007426307 -0.0011892102 0.00037552687 -0.0007900671 0.0024951205 -0.0024184035 0.0008735905 -0.001885309 -0.0011529126 0.001200953 7.9247475e-05 -0.00026356106 -0.0020726814 0.002394332 -0.0005321942 0.0004846311 0.0017301358 0.002423317 -0.0015055906 0.00061440235 0.0009408737 -0.0008773859 0.001222003 0.00033240966 -0.00066249166 0.0024395145 -0.0018065722 0.00047053798 0.0012735121 -0.0019492728 -0.00016907074 0.0020361028 -1.2996118e-05 -0.0014240872 0.0014771385 0.000677782 -0.002464282 0.0022810444 -0.00045565277 -0.0024529623 -0.00033476428 0.002234359 -0.0015909297 0.002278844 0.00036078188 -0.0023054746 -0.0016155273 -0.0007203952 -0.001955638 -0.0014565893
전자파의 0.0016954008 0.001343342 -0.0020957629 -0.0014132052 0.00020629242 -0.0009808729 0.0006315743 -0.0021006053 0.002178696 -0.0012137727 -0.0017954158 -0.002499039 0.0017100747 -0.00090932345 -0.00015598668 -0.0015812472 -0.0014407849 -0.002115718 -0.000548805 0.00026968986 -0.00088907714 0.001734879 -0.00045040413 -0.00022865193 0.00011365055 -0.00023448886 -0.0010160753 6.0905062e-05 0.00095895806 0.0004491831 0.00057629205 0.0015781693 -0.0017055738 0.00076491333 0.00070468546 -0.00044870106 -0.0021938805 -0.0004328253 0.0013437129 0.0011920576 -0.0013722614 -0.0008421065 -5.4496948e-05 0.0023243143 -0.0022809764 0.0013891633 -0.00021036604 0.00041297046 -0.0010078462 -0.002380282 -0.0006802693 0.001310988 3.1075506e-05 0.0019200338 0.001398526 -0.00077385484 0.0016316028 0.0019675791 -0.001810142 0.0022917432 -7.1579176e-05 0.0010159326 -0.0023219425 -0.0014745727 0.0023531113 -0.00085543224 0.0019725773 -0.00014008454 0.0018654603 -0.00087111694 -0.0020084244 0.0009829847 0.0015600028 0.0021527582 0.0015620964 -0.0006977015 -0.0013045239 0.0010103286 -0.00084988895 -0.0015130132 0.0009891283 0.00015512003 0.0022885588 0.002245706 -0.0018002932 0.00011764821 -0.0005389368 -0.0014828974 0.0016273955 0.00082697975 0.0014394758 -0.0013992822 0.0024241582 0.0022380585 0.00016329515 -0.0004943196 -0.0019012698 0.00151215 -0.0008058904 0.001829001 0.0014943142 0.0016661042 -0.0016925912 -0.0003626838 -0.0015112327 -0.0013715727 0.0017815267 -0.0014807591 -0.002285742 -0.0018046154 -0.0011186438 -0.00017639747 0.0009931591 0.002483758 -0.0014069314 -0.0017226328 -0.001459215 -6.10878e-05 0.0018994131 -0.0008403514 0.002463791 -0.0015773738 -0.0018024629 0.0013594863 -0.0021226902 0.0006425534 0.0021745246 0.0010256222 0.000768348 0.0015865546 -0.00089609576 -0.0021067604 0.0003717511 -0.0018583393 -0.0011311567 -0.0021582847 0.0013894319 0.0023360734 -0.0024669315 0.0015259604 0.0013298306 -0.0020986167 -0.0008754691 0.0013004463 0.00051989045 0.0012935139 -0.0006507627 -0.0022820234 0.00053254224 0.0009463646 0.00164023 0.0011817506 -0.001214644 0.0007134184 -0.0019915062 -0.0022907518 -0.0003879083 -0.0021579417 4.162867e-05 0.0013177735 -0.0020979377 0.0015578483 -0.0016252216 0.00023545083 0.00047581375 0.0014331278 -0.00091071776 -0.00037066196 -0.0024558946 0.0024019098 0.0023829234 0.0022822488 -0.0014197559 -0.0012932859 -0.000899416 0.00072750635 0.0023334129 -0.00095954037 -0.00084991305 0.0019992182 0.0008791213 -0.0015161629 0.0018406728 0.0010314574 -0.00096139056 -0.0017384557 -0.0017357687 0.002431145 -0.00015683396 0.00056907407 -0.0015313188 -0.0022622438 -0.0005925613 -0.0010240917 -0.0015391762 8.179136e-05 0.0009321065 -0.0024924693 0.0024431483 0.0014317184
및 -0.00123174 -0.00089730293 0.00034250738 0.0014824701 -7.493151e-05 0.00051214563 0.0018772971 -0.00022737296 0.0017393931 5.5945842e-05 0.0013137634 -0.001890264 0.0003317932 -0.0021285084 -0.0010856098 -0.00089087186 -0.0012886192 -0.00049608963 0.0006546522 0.0005961388 -0.0018683524 -0.0008324607 0.0022149398 0.0009887432 -4.8339643e-05 0.0016952733 0.0014987193 -0.0006913438 0.00061798707 -0.00013159936 -0.0014651632 0.00070769887 -0.0010048777 -0.00014510934 -4.5827837e-06 0.0022291776 0.0013627158 7.271386e-05 0.0024098903 -0.000108903274 -0.0004688699 -0.00012189585 -0.0002036888 0.0010979987 0.00229954 0.0024076663 -0.0019687407 0.0024525444 -0.0022605325 0.0009513747 0.00020364985 -0.0011108118 -0.0014255113 0.0011605911 0.0007451608 -0.00078592025 -0.0013945645 -0.0011752303 -0.0019428027 0.0014620526 -0.00032611753 -0.0011105855 0.0014784939 0.0006309856 -0.0007039046 0.0022852574 -0.001465065 -0.0022508502 -0.0017419577 -0.00033267043 -0.0005778765 0.00015093033 -0.0010346118 0.00030296243 0.00045479147 -0.0015714744 0.0018223439 0.00033537956 2.2576525e-05 0.000648373 0.0017495789 -0.0023291332 0.00021273408 0.0007279031 -0.0007980508 0.00056074467 0.002062965 -0.00066701835 -0.001288798 -0.00087762566 0.000906712 -0.0010859824 0.001544744 0.0018826491 -0.00083315105 0.0005576695 -0.0021932975 0.0010484187 -0.0022267723 -0.0016203496 -0.002339474 0.0005839469 -0.0022925115 0.00061590486 -0.001303995 0.00041630387 -0.002202598 -0.0005150447 -0.002102217 -4.6418495e-06 -0.0018381011 0.002441408 0.0011312265 0.0011954701 -0.0015126907 0.0021466687 0.0013878217 -0.00022175825 -0.0014370132 0.001056335 -0.0018168344 -0.0005562089 -0.0001318559 -0.00024222636 7.466494e-05 0.0017782787 -0.0001682504 -0.0021795733 -0.0010213435 0.0018918387 0.00010198975 0.0009007582 -0.0010326813 -0.00026478892 0.0011796881 0.0021498292 -0.0015384051 -0.001162163 0.0011578846 -0.001633154 0.0022378466 -0.000110249304 0.0008068447 0.0016715282 0.0017415481 -0.00083077146 -0.0012636434 0.0008989495 0.0016407082 -0.0018564151 -0.0016502098 -0.00089796935 0.0024872567 0.001470354 -0.0023207765 -0.0023859744 0.00085864053 -0.0008266585 0.002009476 0.00016772072 -0.0018414335 -0.0015076814 -0.0017380585 -0.0013473582 0.0024479679 0.0008763352 -0.0008220657 0.0010339018 -0.0005018572 -0.0019346232 0.00016257919 0.0023745252 0.0008044192 0.0013782948 0.0023892533 -0.0023782144 0.0015392841 -0.0010079794 -0.0019304344 -0.0005991037 0.0015264448 -0.0014728121 -0.0021209703 0.0020612795 -0.00207803 -0.00020532768 -0.0016475196 0.000799705 0.0012760045 -0.0012597379 -0.00065738166 0.0016913565 -0.0020844887 0.001584019 -0.0023394993 0.0015669413 -0.00081381365 -0.000785413 0.0018607 -0.00054216577
전자파에 0.0016568784 0.0017268448 0.0015891071 0.00040385063 0.0010756897 -0.0024395764 -0.0015868645 0.0023590731 -0.00091081264 0.001642097 -0.00036739383 -0.00067553367 -0.0005304809 0.0006622028 -0.0015792723 0.0001257422 0.00014026108 0.0022555392 -0.0018359836 0.001895149 -0.0021930994 0.00016746092 0.0005371109 0.00013495972 -0.0010422484 0.0009251473 -0.0016882184 0.0009975506 6.4536293e-06 -2.6058331e-05 -0.0017188339 -0.00045673494 0.0014694171 0.0015201275 0.0011787174 -0.00021098873 0.00015673973 0.0014859352 -0.00087987777 -0.0015646972 0.0018185371 -0.001630043 2.9416371e-05 -0.0016258154 -0.0014858824 0.0002664627 -0.00074329367 0.0021698195 -0.0013320083 -0.000114250644 -0.0017209545 0.0007748401 -0.0011481524 0.0011738111 0.0002386018 0.00041024465 -0.0012825318 4.9405073e-05 0.0012422135 0.00055694545 0.00052073254 0.0001719904 -0.000109052984 0.0002895074 0.0003175836 -0.0024486333 0.00054411957 -0.0014366437 0.000103638195 0.00029302403 -0.0023330473 0.0023808246 -0.00013687821 0.0016272791 -0.00073287316 0.0011427639 0.0019651914 -0.0010852489 0.000981684 -0.00087036495 0.00084613526 0.0007731002 0.0016948705 -0.0010206945 -0.0019039961 0.0024136163 -0.0005097497 -0.00084805477 -0.00079283863 0.0021282018 -0.00091724395 -0.0022501515 -0.000318551 -0.0012666207 -0.0012546739 0.0013922727 0.0017033948 -0.0015822843 -0.0004222525 -0.0020655135 -0.0019111217 -0.0005509909 -0.0003308347 -0.0017685328 -0.0010544996 0.00027862212 0.000403783 -0.00063339865 -0.0013222368 0.0013940283 -0.0020760312 0.0011050992 -0.0014921651 -0.0013227868 0.00024022795 -0.0022626442 0.00053681864 -0.00018691298 -0.0013059082 0.0016169153 -0.00028086087 0.00017999341 0.0016415522 0.0007252101 -0.0016833212 0.0024578657 0.0010613574 8.5163105e-05 -0.0013653653 0.0014729749 -9.8667864e-05 -0.0012695154 -0.0024119595 0.0008689077 0.00044441342 -0.0010652213 -0.00089182274 -0.001956014 -0.0003987269 -0.0021907792 -0.002162314 0.00015563724 -0.001943027 0.0024093431 0.0009303853 0.0014748423 -0.0010146876 0.0021590288 -0.0016200932 0.0008774709 0.0023823618 -0.00054985733 -0.0013852115 0.00052370067 0.0015657037 0.0023727885 -0.0021554285 -0.00011298478 0.00021444134 -0.001110085 -0.00014145537 -0.0021710142 -0.0010712764 0.00092233304 -0.000338861 0.0012071796 0.0014284721 -0.00038744454 -0.0014749187 -0.0021641883 0.0019696446 0.0013242791 6.0041686e-05 0.0019779531 0.0023899404 -0.0008752191 -0.0023521266 -0.0004735177 -0.00044977103 -0.00057624886 0.0001546364 -0.0009931109 0.0018721707 0.0017297696 0.00013496468 -0.00063831965 -0.0010187625 0.0019584391 0.0024161404 -0.0015209608 0.0007216766 -0.0013010916 -0.0011605289 1.2451527e-05 0.001440553 0.001201072 0.00044063205 -0.0003817214 -0.0010249662 -0.00044971344
Shielding) -0.0018482491 0.001217169 -0.00030894036 0.0021853913 0.00041972988 0.0006410768 0.000939303 -0.00020997209 0.00078400224 0.0024586106 0.0016345315 0.00108739 0.001220998 -0.00054362026 0.0004807049 -0.00076351844 0.0021890148 0.001880961 0.0017412134 0.0012380207 -0.0011590717 0.0014962809 0.0020457213 -0.00022467799 0.0018863209 -0.00088139065 -0.0015400115 -0.0007217666 0.0008500105 -2.092536e-05 0.0016011811 -0.00039893505 -0.0022622908 -0.0014844865 -0.0024309317 7.7903685e-05 0.00019445046 0.0016515793 -0.00032251846 -0.0010937564 0.002439237 0.0013017833 0.00072343403 -0.001080596 -0.002500976 -0.0019247994 -0.00020852622 -0.00041786983 -0.001717645 -0.002039581 -0.00013148201 -0.001510653 -0.0022316815 -0.00021374716 -0.0016432682 0.002375323 0.00050953374 0.0001489145 0.0021290933 -0.0017487723 -0.0023956914 0.002068928 -0.001429397 0.00046209036 -0.0014393142 0.00068576826 -0.0009156715 0.00020519302 -0.00072796573 0.0021237643 -0.0008254169 -0.00071411324 0.0017859462 0.0017751204 -0.00025941004 -0.0012609158 -0.0009223577 -0.0021143428 0.0017738959 0.0024226126 0.002436399 0.0010665394 0.000515353 -0.00087167544 -0.0016784618 0.00030350572 -0.0024986952 0.0013814978 -0.0019785247 -0.0007935119 -0.0004948713 0.00035188647 0.0013047381 -0.0015568928 -5.248609e-06 1.531146e-05 -0.0022429326 0.0010804081 -0.0020125885 0.001459291 0.0016938032 0.0019984841 0.001537809 0.00022969181 -0.00059972575 -0.0006333724 0.0010046001 -0.0007780991 -0.0007700855 0.0010467578 0.0005289249 1.2304585e-05 -0.002106547 0.00027075617 0.00073651626 -7.2648945e-05 0.00042049226 -0.00060179195 -5.4855096e-05 -0.00017004317 -0.0010481069 0.0010385284 -0.002146244 -0.000264697 0.0017888834 -0.0023330878 -0.002178232 -0.0018941723 -0.0019682336 0.00096908637 -0.0006609452 -0.00018877143 0.0003042334 0.0011370332 -0.0003587185 0.0013619406 0.0021115572 0.0017540668 -0.0014819832 0.0015342757 0.0017090965 -0.00072308356 0.0009727518 -0.0011360949 0.0009923864 -0.00021807147 0.0019143154 -0.0008273683 -0.0003113176 0.001044047 0.0010601416 0.001941765 4.9923452e-05 0.0007882807 0.0019110657 0.0015838682 -0.0007340675 3.7454563e-05 -0.0001430083 2.7098518e-05 -0.0014197134 -0.00033630052 0.0003740217 -0.00062173186 -0.0019376235 0.0012623838 -0.0018260974 0.0011018569 -0.00039987225 0.0010786967 0.0024930073 0.00021588375 -0.0024219437 0.0013532852 0.0011010775 0.0017761154 -0.0003190236 0.0011377218 -0.001290176 0.0022145275 0.0009141036 -0.0013778924 0.0022280226 -0.0002456344 -0.00014298076 -0.0023547725 0.0015864613 -0.00026471255 0.0024506703 0.000578518 -0.00212347 0.0014346896 -0.0019729135 0.0005087974 -5.5097546e-05 -3.2579735e-06 0.0023285474 -0.0016290143 0.001870358 -0.00075022085
있는 -0.00019568863 0.00042813335 0.0005429245 -0.001370083 -0.001866482 0.0010287088 0.0014635678 0.0017901162 -0.0008215006 0.0015272928 0.0015719002 -0.00091116974 -0.0019164219 -0.0020388511 -0.0007709387 -0.0017920332 -0.0003746653 -0.0015357304 -0.00068368943 -0.002108256 -0.00064918125 -0.001404813 -0.0009260616 0.0018655608 -0.00035681593 0.001442213 -0.0014472735 -0.0024049126 -9.7454766e-05 0.00070553843 -0.0022765484 0.0024362882 0.0005142077 -0.0024377326 0.0007069351 -0.00022080728 0.0019669747 -0.00097655214 0.0007257938 0.0024338504 0.0007568459 -0.00021338214 0.001111555 0.0008452374 0.0007480706 -0.0017048704 -0.001405212 -0.002355327 -0.00065813126 0.0015093241 -0.0010035305 0.0002135639 0.00014043575 -7.0744616e-05 -0.0023385896 -0.0024696551 -0.00011629321 0.0017073005 0.0018247745 0.0009847924 -0.0011040792 -0.0012565447 0.0017839072 0.00018821952 0.0022962526 0.0017137721 0.00019953004 -0.0010821269 -0.001503291 -0.0009089758 -0.00077843474 0.0016437604 -0.0003440437 0.0021352114 0.002163739 -0.0004183423 0.0017174111 0.0014033321 -0.00023655054 0.0023867637 -0.0022349495 0.0011328239 -0.00020592357 -8.729651e-05 -0.0014120537 0.0004759947 0.0004458749 -0.0023589423 0.0021418517 -0.00021979745 0.0019980299 0.0015606858 -0.0010173859 -0.00031066258 -0.001136155 -0.0010721261 -0.0022442946 0.00087218214 0.0006135832 0.0016787227 -0.0023610631 -0.0024499374 -0.0004827931 0.0013161486 -0.0010251553 0.0023106097 -0.0014952066 0.0018154256 -0.0014290963 -0.0018860413 -0.0016971965 0.0014972601 0.0013877938 0.0019775915 0.002110414 0.0016224572 0.0007590619 0.0017790911 0.00076068344 0.001375739 0.002119405 -0.0011686711 -0.00065016793 0.002107038 0.00065490144 0.002066501 -0.00090891734 0.00061206106 0.00064740976 -0.0022964226 0.0019779701 0.00067746267 0.0014055027 -0.00053627224 0.001387558 0.002088102 -0.0007427405 0.0014563693 -0.00097182527 0.0013562771 -0.0018083842 -0.0008892345 0.0019115234 0.001957461 -0.0016426722 -0.001813059 -0.0013681083 0.0013549069 -0.0008635746 -0.0018082461 0.0013360982 -0.002482636 -0.0010010401 -0.0011295466 0.0022258002 0.0011818764 0.00015552314 0.0008741241 0.00011624322 0.00071071286 -0.0017794593 0.0011679558 0.0010475502 -0.0024798259 0.0019409867 -0.0005027207 0.0007069404 -0.00048124124 -0.0015775984 0.0017689874 -1.0005782e-05 0.0012327986 0.0009766099 0.0012635043 0.0010234864 -0.0012626409 0.00076157786 -0.0017261135 -0.0024235004 -0.002156633 0.0013203936 -0.002055592 0.000642517 0.0005057344 -0.00012821358 -0.0015015055 -0.0008505069 0.0013099859 0.0008173905 0.0008414575 0.00010949356 -0.0018112764 0.0020068726 0.0007978146 -0.0022571438 -0.002118458 0.00070528936 -0.0006671329 -0.0020401648 -0.0014847504
이용한 -0.0024381105 -0.0015631013 -0.002279831 0.0008281778 0.0012385229 0.0021644665 0.00092105323 -0.0021667972 0.00035638534 0.0005967537 -0.00040382892 -0.00063114794 0.0018063186 8.269245e-05 0.0018472045 0.00016854862 -0.0006632694 0.00039596893 0.00094461377 -4.4324497e-05 0.00011166576 0.0022317602 0.0015438283 0.0004846644 0.0017312912 0.0013712718 0.0015144671 -0.0018677876 0.0018356461 -0.0019442618 0.0014220646 0.00050724833 -0.002426216 -0.001278001 0.00206188 -0.0005652576 0.0024702137 0.0010731595 -0.0010613081 0.0006088647 -0.0017038416 -0.0005273993 0.00014325845 0.0019955216 0.0022026056 -0.0016614856 0.0005643565 0.0017815655 0.0014720395 -0.0013878058 0.0009889262 -0.00059755385 1.3957183e-05 -0.00020526965 0.00014707612 -0.0024828059 -0.00020829699 0.00029146596 -6.197284e-06 -0.00042918534 -0.0005843166 -0.0015319203 0.002457965 0.0022250474 -0.0004186815 -0.0018263602 -0.002238759 -0.0019871632 -0.0019133701 -0.002032834 0.0018235977 -0.0004437611 -0.0002866497 0.00010462684 -0.0022233939 7.220529e-06 -0.00045693677 -0.00020544713 0.0020155364 -8.454936e-05 0.0013047067 0.00057568983 -0.00065103295 0.0019596438 -0.0024620476 -0.0008908266 -0.0020287377 0.00016276869 -0.0021648111 0.0024010148 -0.0024277854 0.0006704867 0.0014419699 -0.0006611683 -0.0006417023 0.00026742776 -0.0008215448 -0.002022479 -0.0015722192 -0.0023115245 0.0017041113 -0.0018973487 0.00081763905 0.00095010846 0.00194195 -0.00025002228 -0.0022605525 0.0011877323 -0.0010728131 -0.00041358874 -0.0019573462 -0.0006097859 0.0018891625 0.0018482608 -0.0010642101 -0.002380391 0.00039936232 -0.0010263006 0.002000994 -0.0008984845 0.00088354986 0.0002656438 -0.00040130882 -0.00049104297 -0.0024309193 -0.0024594546 0.00061522855 0.0012843269 -0.0003499407 -0.0013013629 -0.0014413566 -0.0020752521 0.0011785666 -0.00021721615 0.000713505 -0.0002960675 0.0019992224 -0.0019236526 0.0010802168 0.0013077105 -0.0024576709 -0.0017437657 0.0023993459 0.0011906107 0.000869473 0.0006981212 -0.00015506965 -2.6382402e-05 0.0019587718 -0.0019704422 -0.00012539627 0.0013269607 4.233447e-05 0.0009370465 0.0024600655 0.0010985681 0.0013027944 -6.580632e-05 0.0007698804 -0.00013619404 0.0024096929 -0.0005598818 -0.00025673557 -3.561655e-05 -0.0006351372 -0.001951644 0.0013078708 0.0013075231 0.0014069931 0.0012967117 0.0021868732 0.00070768176 0.0020429697 -0.0017606404 0.00038438238 -0.0010214876 0.0011052777 -0.00023404298 -0.000697955 -0.0022306973 0.0017328595 -0.00046628778 -0.0019242851 0.0015709564 -0.0020661817 -0.0017817777 0.0011616189 -0.0015472041 -0.0024963797 -0.00126875 -0.002372806 0.0002747875 -0.0009817097 1.055864e-05 -0.00029885565 -0.0010296851 0.0017562178 -0.0003647148 -0.0023201366 -0.00034680765
큰 -0.00046363013 -0.0023259853 0.001453462 0.0010433652 0.00019962319 -0.00076754927 0.0014107565 0.00012240894 0.0011232928 -0.00039393248 0.0016953016 0.00031167676 0.0016145414 -0.002367237 -0.0008123867 0.0010967012 -0.0020104141 -0.001907972 0.001025525 0.00095180835 -0.0014520729 0.000572845 -0.0020122828 0.0022301031 -0.002209236 -0.0022581152 -0.0019290935 -6.136734e-05 0.0015307079 -0.00075006625 7.941814e-05 -0.0019712881 -0.00078537967 6.544175e-05 -0.0011082971 -0.0001498523 0.0020389229 -0.0018448076 0.0015296793 -0.00056158286 -0.0012726071 0.0021474562 -0.00041882647 -0.0016697551 0.0011913781 -0.0004792396 -0.0013486337 0.0021463842 -0.00093118346 -0.000511829 -0.0014704103 0.00085112394 0.0010296258 0.0020465842 0.00039228154 2.1676999e-05 0.0011733344 -0.001298172 -0.0011807113 0.0016865036 -0.001485781 -0.0016551174 -0.0019839068 0.0022708424 -0.00078513596 0.0019561583 0.0004244263 -0.00010848324 0.0012045578 -0.0011661233 9.016242e-06 -0.0018574022 0.0019043805 0.00040613447 -0.00020473398 0.00037217437 0.0015778397 -0.0002991453 0.0023772507 0.0015697071 0.0009254202 -0.0011658433 -0.0023115007 -0.0022749396 -0.002461464 -0.001446199 -0.0009280591 -0.0012574599 0.0003745518 -0.0017125274 0.0024349075 0.000886792 0.0021349832 0.00080190506 -0.0009431951 -0.00084022054 -0.00070550677 0.0020026143 0.00042087925 0.0024962057 -0.00040827942 0.00038591668 -0.00058547664 -0.0009709201 0.0021227498 -0.00030362423 0.0006568377 -0.0019798093 0.0022565376 -0.0013594232 0.0016537938 -0.0020802908 -0.001490686 0.0019362689 -0.0012900769 0.00033642477 -0.00042411225 2.7767005e-06 -0.0008662339 -0.0003380407 0.0016071296 0.0020749292 -0.0015828302 0.00042307947 -0.0019431575 -6.673119e-05 -0.00119442 0.00061512896 0.00068916206 -0.0023187632 -0.00038952622 -0.0014777451 -0.002429406 0.00051448744 -0.0006442032 0.0015533923 0.0010119056 -0.0012685003 0.0021516639 -0.0024089867 0.0012476027 -0.0023257677 -0.0014728542 -0.0017567606 0.0015478281 0.0010615357 -0.0013090447 0.0005001959 -0.0005979272 -0.0013967718 0.00034257173 0.000860567 -0.0018493593 -0.0007705988 -0.0003026509 -0.001937872 -0.0015172788 0.0008631736 8.087076e-05 -0.00081188994 -3.9810425e-06 -0.000738407 0.0010836932 9.862548e-07 0.0017622717 -0.00015016114 -0.0020137436 0.00037725826 -0.0011327339 0.0022314072 0.0006249637 -0.0012117549 -1.47544815e-05 0.0003628326 -0.0005832332 -0.0017131923 0.00095419417 -0.0020174498 -0.0010818769 -0.00035072165 0.0024869402 -0.00023136346 -0.0017009152 -0.0020971787 0.0021019063 -0.002326303 0.00068696873 4.6669906e-05 0.0016541587 -0.00025072225 -0.00021343399 0.00071305817 0.0023177362 -0.00055262656 0.00021065594 -0.0010910864 0.0012816788 0.0023908692 -0.00045486834 0.0014505346
같은 -0.00027302498 -0.000882682 -0.0013299237 -0.0023111647 -0.00023275893 -0.0011896259 0.0009908094 -4.966181e-05 0.0019094808 0.0020481716 -0.00083162833 -0.001857176 0.0024688514 0.0010524939 -0.0016129521 -0.0010226498 0.0009608837 -0.00042109613 0.0014070858 0.00028597852 -0.001514504 -0.0009859743 0.0020240096 0.0008430438 -0.0024643485 -0.00031014124 0.0021852634 -0.00062948914 -0.0005013702 -0.00052015804 -0.000945536 0.001111917 -0.002225486 0.00048870087 -0.0023950853 0.00076195144 -0.00042254527 -0.00033161376 0.0001539737 0.0017315685 0.0015683094 0.0019228876 -0.00064423704 -0.0020612925 4.9036462e-05 0.0018907725 -0.0016667754 -0.0012218757 -0.0004940896 0.0005585167 0.00080948987 -0.0010228788 -0.0014989737 -0.001142255 -0.0011933639 -0.0016095152 -0.0015216161 -0.0018839921 -0.0012851183 -0.0022294999 -0.001068061 -0.0006027006 -0.0013773356 0.0008349571 0.0011157742 -0.002242726 -0.0023785196 0.0019068861 -0.00061266735 -0.0017502706 -0.0007126886 -0.00087112427 -0.0020666723 -0.0010035812 0.00018428503 -0.0014359242 -0.0011425348 -0.0024722188 -0.00038610428 0.00097487384 0.0016012515 -0.0011349836 0.00067482376 -0.0013295816 0.0004316471 -8.5891275e-05 -0.00073695474 0.0002007947 0.0023557367 0.0020782696 0.00086297607 0.0023839904 -0.0008153994 -0.00068122876 -0.00073084567 0.001989028 -0.00061204215 0.0009418316 -0.001986538 0.0017978385 -7.591387e-05 -0.00210261 -0.00010709347 -0.0018119114 0.0019422924 -0.002105133 0.00088728603 -0.0015468634 -0.0017982685 -0.00032061653 0.0021363932 0.00076080003 0.00024027147 0.0012023028 0.0019412225 0.0016152672 -0.000883871 -0.00159782 0.00077569764 -0.00043505005 0.0013792011 0.0023355193 -0.0011513234 0.0009882936 0.0018230685 -0.0011092087 -0.0021881845 -0.0013555265 -0.00070940465 -0.0021391602 -0.0023181506 -0.00073335815 -0.0006994722 0.0019922848 0.0020538464 0.0007037771 -0.002043821 0.0008883604 0.00048263522 0.0016576964 0.0014086472 -0.0024121876 -0.0010156794 -0.000982101 -0.0014014645 -0.0008717266 -0.0015774951 0.00038019576 -9.3791205e-05 -0.00036532464 -0.00061390025 0.0015374129 -0.0015467707 -0.0004878593 0.001811802 -0.001689986 -0.0015854412 -0.0011753578 -0.00015719024 0.002309196 -0.0021629015 -0.0011291847 0.00013162555 -0.00083380664 -0.00014498291 0.001326272 -0.00094064523 0.0018721148 -0.001075734 -0.001986648 0.0007898678 0.0002008265 -0.000804209 0.0018048052 0.00055399194 0.0016407401 -0.0006251939 -0.00065739674 -0.00097302033 -0.00044728347 -0.0011833743 -0.0024998856 0.0023168044 -8.4709165e-05 -0.00049855735 -0.0005611959 0.00091259804 0.0011678957 -0.0024250501 0.00089014956 -0.0006941767 -0.00065814285 -0.0017158331 -0.0010178968 0.0012388736 0.0023389922 0.0015694381 0.00075923436 -0.00075252925 -0.0014718178
아니라 -0.0017098252 -0.0002362372 0.0024529346 -0.0012025 0.0011951786 0.00094694656 -0.0016795202 4.3049215e-05 0.0015820892 -0.0014372598 -0.000958481 0.0009815238 -0.0019556761 -0.0013667693 -0.0013984848 -0.0014049347 -0.00022536979 0.0018268563 0.0013926185 0.0013256198 0.00017310127 -0.001624217 -0.0021733297 0.0024422528 3.6195255e-05 -0.002020232 -0.002162386 -0.0008352389 0.0014165734 -0.0019821809 -0.00059165544 -0.0011553512 -0.0001774571 -0.001575596 -0.0021880728 0.00249904 0.0020064698 -0.00037752453 -0.0024851025 -0.0019164524 -0.0018396595 0.00010551862 -0.0016843488 0.0020679154 -0.0021327299 -0.00074745377 -0.001722402 0.0019004183 -9.988596e-05 -0.00017127408 -0.00016124418 -0.0023130705 -0.0016837041 0.00025875552 0.0014981331 -0.00040783864 4.6370977e-05 9.277511e-05 0.0016725851 0.0011977479 0.0013149381 -9.284892e-05 -0.00018541743 0.002452887 -0.0014585122 -0.0011160357 -0.0015267789 -0.0022422199 0.0023907172 -0.0014717743 0.00023056573 0.0005844147 -0.0019063095 -6.8654095e-05 0.0016765437 0.0011033069 0.0014801912 -0.0006428166 -7.428979e-05 -8.313931e-05 -0.0014120092 0.0019861762 -0.00028910855 -0.0018383672 -0.0010027514 0.00086775067 -0.0008702937 1.5709986e-05 0.0015622007 0.00026537967 0.0010205454 0.0016315046 0.0010771478 0.0015198349 0.00086860347 -0.0011688336 0.0009311998 0.00018848549 -0.0005715511 0.0011011094 0.00222999 -0.0015666308 -0.0023097775 0.0019740113 0.002176003 -0.001174427 -0.0016372232 -0.0019905875 0.0013467801 -0.0018015368 -0.00045692336 -0.0009841373 -0.00101807 0.00060825597 -0.0020805749 -5.3565454e-05 0.0002239294 -0.0015230961 0.0024268872 -0.0005819992 0.0011463898 -0.0020757965 0.00038932954 0.0018888612 0.0010276907 -9.152929e-05 -0.0018699579 -0.0007787171 -0.0006622431 -0.0008999065 -0.0012266346 -0.0013852945 0.00043159025 -0.00039775262 -0.0015364396 0.001625487 0.00089801254 0.0024891128 0.0020533912 -0.00033892898 0.0017283092 0.0016063438 0.0011938743 0.0018447589 -0.00074745977 0.002432191 -0.0022710084 -0.00010957799 -0.00015279173 -0.00079614384 0.00025614095 -0.0023260755 0.002175915 0.00017399344 0.0011387473 0.0018196837 -0.00043665743 0.0003451796 0.0024003745 0.0010011069 -0.001183776 0.0021348565 0.0014980016 0.0018253641 -0.001141279 -0.0015212861 0.0023168635 -0.0019557292 2.4414407e-05 0.0015714947 -0.0010447655 -0.0019981656 -0.00010857493 0.0022898 -0.00059682655 0.0013047493 0.00024999367 0.0008321972 -0.00034028082 -0.0010922393 -0.0021930197 -0.0014199415 0.0010291564 0.0024844653 0.0015309982 -0.0013993665 -0.0016053014 -0.0020121853 -0.000785962 0.0016221093 0.000273804 -0.0009586318 0.0002791662 0.0015695927 -0.00044126526 -0.0012399105 -0.0024557142 -0.0018418833 0.00010729472 -0.0005822442
자동차 -0.0012695236 -0.0010936705 -0.0008780182 -0.00069498527 -0.0020028718 0.00082118803 0.0011636055 0.0023193688 0.001686548 -0.0024238895 -0.0017498008 0.000703567 0.0015901104 0.00093638635 -0.0005129253 0.00089950865 -0.0009804926 0.0024330406 -0.0011787624 0.0014395808 0.0014134949 0.0018430683 -0.00059035094 0.0017334147 -0.00063311507 -0.0015928433 0.0013356872 0.00048330557 0.0018667217 -0.0024244362 -0.0009828075 0.002401088 -0.0010058364 0.0012368967 0.002207826 0.0021957245 -0.0016027491 -0.0016307138 -0.0013647773 0.002167051 -0.0024780226 -0.00085745053 0.0012953435 4.559316e-05 0.0024443509 -0.0023813436 0.0019574352 0.0002099459 0.00011558796 -0.0024433332 -0.0014624728 -0.0022387586 0.001107041 0.0017871668 0.0024849277 -0.0022241634 0.001936337 0.0023484132 0.0010641855 0.0010910475 0.0012038724 0.0017315143 0.0015251199 -0.00041919432 -1.0989127e-06 0.0019494523 0.0018703843 -0.0022830172 0.0019067299 0.0017595828 -0.0022592733 0.00041830848 -0.0011330252 0.00035643496 0.0023589365 -0.000538762 0.0014689493 0.002051121 0.0015213226 0.00058011734 -0.0009248733 -0.0010520398 0.0006256216 -0.0005573375 0.0024851188 -0.0019887004 0.0009267485 0.0010349257 0.0009768201 -0.0024267957 0.0019583916 0.0023117259 0.000679866 -0.0017042056 -0.00046177083 0.001163866 -0.0017392156 -0.0018053598 -0.0016375228 0.0018697144 0.0019221206 0.0001389985 -0.00022066377 0.00055203645 0.0017654736 0.0021096861 0.0017274028 -0.0019727466 -0.00022204262 0.00041799145 0.00056020485 0.0016505265 0.0004934026 0.0004331888 -0.0010166201 5.1493487e-05 0.0014866156 -0.0013767725 -0.0023251353 0.00070004014 -0.0022738518 -0.00124008 0.002088587 -0.00091970107 0.0006755859 5.6990917e-05 0.0009948921 0.00041132866 0.0015536017 0.0015685904 -0.000915531 -0.00019881065 0.0023813678 0.002427239 0.0014343628 -0.0018895132 0.0023366695 0.0011052862 -0.0020764018 -0.0009116045 -0.0021840325 0.0012747535 0.0016293343 0.0016477816 -0.0013489807 0.0009948998 0.0008651099 -0.0022592712 0.0013911617 0.0024194673 -0.0007476587 -0.0015584297 0.0015605324 -0.00013476876 0.0013787276 0.0006352518 -0.0018214119 -0.0010652147 -0.00076574204 0.00028504513 0.00043956703 0.0018967197 0.0006160215 -0.0010093871 -0.0020548643 -0.0020398248 -4.4758057e-05 0.0007887697 -0.002452883 0.0012889011 -0.00081942795 0.0013969586 0.002216008 0.0018143118 -0.0008298034 -0.0019652704 -0.0016976459 0.001512925 0.0016591385 0.00024842567 -0.002151865 0.0013376703 0.00077054475 0.0020858534 -0.0015725368 0.0012229139 0.0024518736 0.0017837057 -9.634813e-05 0.0018470947 -0.0009279087 -0.0021548474 -0.0011861243 0.0024632604 0.00034143077 -0.00093903544 0.0021312516 -0.00209319 0.002316076 5.450219e-05
대한 0.0021045688 0.0016858528 -0.0011050164 -0.00072682 -0.0009950396 -0.0005188333 0.00024007948 0.0021737216 0.0011247518 -0.001665026 0.0018770578 0.000812426 -0.0011218799 -0.00033682148 0.0019286624 0.0008581043 -0.0012527879 -5.0875e-05 0.00035316407 0.0018471507 -0.0003465966 0.00050347357 0.0015968141 -0.0016866929 0.0012236369 -0.0021063797 0.0009123659 0.0004039379 0.0014501072 -0.0008066598 -0.0009412332 0.001690633 -0.0023416954 0.0004066853 0.002346977 0.0015751242 -0.00013990622 -0.0011377159 0.00095275074 0.0012200819 -0.00033766043 0.0011464265 -0.0011340925 -0.0012563464 0.0021938046 0.0010747423 0.0008752134 0.0010249941 -0.0008595463 -0.0010910314 0.0014731699 -0.0011858506 0.0014695984 0.0017355671 -0.0024654043 -0.0006383777 0.0012230494 0.0013587823 0.0021767765 0.0008320737 -5.3998217e-05 -0.002158583 0.00084091985 0.00035288592 0.0022219005 -1.859647e-05 0.0014909302 0.0007295192 0.00034453202 -0.0015227428 -0.0016608849 -0.001698967 0.0024356972 0.00019670681 -0.0024878979 0.00021595639 -0.0015403642 -0.0006049795 0.00059613783 0.00050513435 0.0016096892 -0.0019479045 -0.00057455746 0.001586914 0.0013293783 0.0021498748 0.0020737401 -0.001661645 0.0011605337 0.0011429843 -0.0008213957 -0.0013304701 -0.0007454833 0.0022898286 0.0006766079 0.0024605088 -0.0021311163 0.00058371533 0.0018297485 -0.00046327748 -0.00015843671 0.0014560365 -0.0022406143 -0.0018240156 0.0008486234 0.00019385171 -0.0008975135 0.0014394773 0.0024210808 6.314638e-05 -0.0023453077 0.0018151902 -0.0005465627 -0.001809106 -0.00021526316 0.0015103321 -0.00028958183 -0.001442647 -0.0012971247 0.0011893153 -0.0010285358 -0.0017403071 -0.0017146034 0.0002845237 0.00056504074 0.00011505526 -0.0010043224 0.00084380334 -2.071565e-05 0.0009400417 0.001104878 -0.00046596446 0.0024086942 0.0006667972 -0.0010946676 -0.0024407003 0.0021988666 0.001713484 0.0018409605 0.00049214833 0.0013604087 -0.0020966704 0.0017482901 0.0019997028 0.0015272596 -0.0010644699 -0.0004104718 -0.0018842054 0.0013854816 -0.002110434 -0.0012248037 0.0023366322 0.001246698 -0.00040543784 -0.0010515859 -0.0017425757 0.0008187008 0.0019311317 -0.0019692022 -0.0007740438 0.0003141975 0.00016889352 -0.0011809294 -0.0010996795 0.0007507786 0.0010934138 0.00038584258 0.0022986366 0.0016427259 -0.0007561213 -0.0022676534 0.0023386206 0.0023296443 -0.0017491463 -0.0011182966 0.0011390347 5.0047156e-06 -0.0018289158 0.00093370304 0.002165699 -0.0022289117 -0.001693045 0.00042509602 0.0018838262 -0.0019355746 -0.0018259813 0.00080583175 -0.001919881 0.0014799988 0.0007559354 -0.00095563923 0.002291866 -0.0018597773 0.0023921344 0.0006054225 0.0009818373 -0.002482234 -0.0016058013 -0.0015251073 -0.0013057092
이러한 0.0015487353 -0.00023185767 -0.001856534 0.0012617107 -0.00094607915 0.0010833086 0.0014595645 0.00042398553 0.0009814993 -0.0007519063 0.0006267903 0.0008018552 0.0013249369 0.0019608731 -0.0015580737 0.0009796707 -0.002266113 -0.0009675398 -0.0012228215 -0.000867243 -0.00036790653 0.001302536 0.0009469419 0.0009214985 -0.00167978 0.00031323708 0.00014940713 -0.0014844624 -0.002360827 -0.0019848747 -0.0021013876 0.0024679701 0.002491676 -0.001087086 -0.0020794196 9.539074e-05 0.0013786815 0.0005171814 -0.0008222381 -0.0024015924 -0.00048051175 0.0008295066 -0.0024838706 -0.0024234974 -0.00030601936 0.0010924378 -0.0018290248 -0.0007242119 0.0002102371 0.00014437987 0.0007632583 0.0007465747 -0.0002705062 -0.0023781462 0.0003492113 -0.00022487495 -0.0023920562 -0.00027378782 -0.0023922299 -0.0020482633 0.0015278527 -0.0015555668 2.664059e-05 0.001022878 -0.00089773664 0.0012854097 0.00046649322 0.0012689126 0.0022676764 0.0009034236 0.0011684418 -0.0024683375 -0.0014154552 0.00019967095 0.0024500326 -0.0007654188 0.0021029874 -0.0022293997 -0.0004840996 0.0015400854 0.002164841 0.002234267 -0.0009599035 -0.0013929906 0.0013977683 0.00064643676 -0.0014334196 0.0009745165 -0.0007623635 -9.399378e-05 0.00024894395 -0.0019211539 0.0006305706 0.00168551 -0.0010444652 0.001782835 0.00067753246 -0.0011242738 0.00044591064 0.0015950426 0.0007082531 -0.0021736757 0.00034276457 -0.00011700815 9.6283e-06 0.00049032713 -0.0011581087 0.0017316449 -0.00081994676 0.0019443806 0.0011555215 -1.0376592e-05 -0.0014483095 0.0005701116 -0.002420411 -0.001440297 0.001885393 0.002269705 0.00032669926 -0.00069317437 -0.0024278502 -0.00069769996 -0.0024720891 -0.001144831 -0.00021557484 -0.0010831157 -0.0014046088 0.001300005 0.0016893928 0.0006279751 -0.00027135617 -0.0021829626 0.0024877954 -0.0012404822 0.0005136511 -0.0004579048 -0.0002015655 0.0016447986 0.002365882 0.0020651324 -0.0021426098 -0.0008664951 -0.0022775244 -0.0020671876 0.0011658929 -0.0010565373 0.0015480674 -0.0007779383 -0.0012840941 0.0013682091 -0.0015269299 -0.00024203322 -0.00048081044 -0.00063953735 0.0017135671 0.0021739712 0.0014507386 -0.0020565712 -0.0016195133 0.0018013685 0.0007725133 -0.001812086 0.0017167921 0.0022646268 0.0006558849 0.0016044049 0.00022680995 0.0021379224 -0.0010801964 0.0013621494 0.0024704847 -0.00020039854 5.916985e-05 -0.0019753093 0.0024700148 0.0010073191 -0.002177328 0.0005966653 -0.0021675944 -0.0014757297 -0.0004125386 -0.00036533878 0.0013514897 0.00010044625 0.001444663 -0.0017577406 -0.0010160371 -0.0024797777 -0.0021205854 0.002478635 0.00023340447 0.0014448294 0.0010090579 0.0023716635 0.0009684695 -0.0008349193 -0.00036627057 -0.0004917799 0.001350193 0.0006866395
기술 -0.0023790344 0.00089381356 -1.95893e-05 0.0009854011 9.102274e-06 -0.00020518176 -0.0020903682 -0.0011468277 -0.0024660048 -0.001253786 -0.00011549961 0.00072305754 0.00070604304 -0.0020003926 0.00041997933 0.0012979383 -0.00015743406 0.0020890848 -0.0022130236 0.0021588604 -0.0015635252 -0.0020536403 -7.169939e-05 -0.0016891775 0.0010255425 0.0023369694 -0.0022067565 -0.00038880715 0.0007571613 0.0012208215 -0.0004256521 -0.0009743098 -0.0019144176 0.0002489869 -0.0006821542 -0.00080381916 -0.00010394695 0.0024210918 0.0020617181 0.0021665238 -0.00010361937 -0.00050067465 -0.00044267921 0.00062803115 -0.0006997976 0.00034246323 -0.001764063 -0.00016051302 0.0015355431 0.00079428783 0.0021906395 -0.0023064483 0.0016853235 -0.0020389403 0.00096805755 -0.002390774 0.0024270196 -0.0012801489 -0.0017632548 -0.0011940639 -0.0011316914 0.00094136945 -0.000516687 0.00054042874 0.0002685688 8.217022e-06 -0.00050761376 0.0013059017 0.00048781483 0.001258081 0.0017033247 -0.0015644141 0.0024860965 0.001439737 0.0007727856 -0.00032393663 0.0021437956 0.0015962564 -0.002171519 -0.00021349944 0.0016984356 -0.002164759 0.0015585994 -0.0020577812 0.0023912012 0.00068515993 0.0015000207 -0.0016483152 -0.0020863696 0.00030576854 0.0018332844 9.230923e-05 0.0010700976 0.0021396985 -0.00018946621 -0.0014107674 0.001184845 0.00092976185 0.0023000964 -0.00213804 -0.00034636463 -0.0015046299 0.0021319508 0.0006242307 -0.00078155735 -0.0011305353 -0.001256498 -5.1589683e-05 0.00059824315 -0.0011496416 0.0015132695 0.0007111801 0.0005190481 0.002233534 0.00020660704 0.0016422437 -0.0024692467 -7.07767e-05 0.0011888089 -0.00036014573 -3.1633284e-05 0.00031639895 0.00017722843 -0.0019152147 -0.0021275855 -0.0021161528 0.0016282086 -0.000222113 -0.0021970246 0.002172351 -0.0022686871 -0.00059756957 -0.0002385189 -0.0008748319 0.0012255723 0.00081671384 -8.5972184e-05 -0.00070226286 0.0009627924 0.0013510828 -0.0019999002 -0.00048173263 -0.0010998958 0.0009387315 -0.0009732818 -0.0023450577 -7.4761716e-05 -0.0008491843 0.0015690551 -0.0024772598 -0.001656123 -0.0010859794 0.0021186862 -0.0015030116 0.0020327452 -0.00028672323 -0.0009796245 -0.0021623112 0.0007480703 -0.00044386275 -0.001354505 0.0008796013 0.0011403081 -0.00043321375 0.00095699076 -0.00059740915 -0.0004509418 -0.0008069196 -3.0275234e-05 -0.0024971876 -0.00089708343 -0.001932919 0.0023603314 0.00012467563 -0.0005410624 -0.0004044454 -0.00037523342 0.0015829874 -0.0015119946 0.0021889247 0.0011246284 0.0012379808 -0.0022810702 0.001237511 -0.0023750665 0.0016368186 -0.0020890948 0.0011312037 0.0015244306 -0.0022186486 -0.00019101889 -0.00034584606 -0.00021705833 -0.0014212201 -0.0005692486 -0.00057982653 -0.0015271881 0.0011861227 0.0008933508 0.0007530055
위한 0.0015373476 -0.0010700633 0.0014948765 0.0017189495 -0.0015937625 -0.0014379423 0.000745554 -0.001994827 -0.0013873639 -0.0012258141 -0.00047251154 0.00044563707 0.0011027289 0.0020667568 0.0011773994 0.001796881 0.00055507926 -0.0003748795 -0.0003748188 0.00041250593 -0.0016264973 0.0004662725 0.0022552738 -3.463487e-05 0.0023146544 0.000117407806 0.0018881614 -0.0023979442 -0.0002071612 0.0011200504 0.00030574095 -0.00089575327 -0.0009902081 0.0018738167 0.0018440391 0.00041588742 0.002106986 -0.0015076232 0.0013740772 0.00013212161 0.0023468607 -0.000489422 -0.0015738759 -0.00017018052 0.0021423672 0.002274481 -0.001553581 -0.0012219102 -0.0007352312 -0.0016353615 -0.0024140798 -7.611007e-05 -0.0003131912 -0.0006906093 -0.0006892401 -0.0013398334 0.0016019994 0.0009339296 0.00072900736 0.0016488718 0.0023688169 0.0003284906 0.0011235451 -0.00054365495 0.0017643829 0.0016701112 0.00073852105 0.0008010379 0.0023289537 -0.0008254216 -0.001674788 -4.0581726e-05 0.00036879422 0.0021742114 -0.0013098029 -0.0014031497 0.001618195 -0.0022619006 0.00017242704 0.0014524669 0.0014839732 -0.00069588283 -0.00090850185 -0.0007766692 -0.0010576823 0.00036481058 -0.0016929618 -0.0022405211 0.0015650673 -0.0011697327 0.0014243741 -0.0010136561 -0.00010682707 -0.0011109427 -0.0014153768 -0.0009173037 0.0003975688 0.0011352428 0.0011592229 -0.0011434754 -0.000598508 -0.0015932659 0.0005999597 -0.0016995756 -0.00019033515 -0.0017859153 -0.0024712828 0.0016539103 0.0015842121 0.00012704972 -0.0008436926 -0.0012782188 0.0022017767 -0.0018689971 -0.001208363 0.0008983578 0.0011757124 0.002164194 -0.00046696473 -0.0022657758 -0.00090944034 -0.00049702503 0.0015380373 0.00039223066 -0.00027194302 0.0023035395 -0.0017043005 -0.0006557195 -0.00088712433 -0.0006913517 0.0023666306 -0.0009648609 -0.0022009078 0.0021376787 -0.0014954156 -0.00025468157 0.0021069038 0.0021755656 0.0024547006 0.0024273698 -0.0020968772 0.0024077035 0.0013165786 0.00040602003 -0.0003345336 0.0017516288 0.0010350203 -0.0024653233 -0.001958356 0.00026476593 -0.0013492943 0.0004922899 -0.0017308124 -0.00029994248 -0.0018302703 -0.0019316761 -1.8742632e-05 0.0016281173 0.0002877112 -0.00024463277 -0.0012010161 0.0008004059 -0.0024322872 0.00030693313 0.00054486154 -0.0024880783 -0.0023535558 0.00069221016 0.0012197855 0.00044141375 0.002382884 -0.0020705594 -0.0017181981 -0.0005410439 0.0020947952 -0.0019005791 0.0024495383 0.00025814405 -0.0004373295 -0.000883288 0.0017470339 -0.0006057795 -0.00069759344 -0.0016229803 -0.0002668003 0.0012084459 0.0006741782 -0.00128172 0.0016986293 2.0987989e-05 -0.0009938108 -0.002088139 -0.0010651802 0.0020129895 0.0014994909 -0.0005329748 0.0021780066 0.0022698946 -0.0024701434 0.0021922102
흡수 0.0020123655 0.0021730436 0.00013225892 0.0022196039 0.0016036105 -0.00022340276 -0.0020055668 -0.0011366551 -0.0007748734 0.00039704313 0.00077557395 0.0018448402 -0.0018638704 0.0017504052 0.001195158 -0.0014393913 -0.0006033629 -0.0011568145 0.0021237447 -0.0005151365 0.002253842 -0.0012795727 0.0021411735 0.0018463039 0.0014823956 0.0008847348 0.000676103 0.0020572026 -0.001819173 -0.0015298098 0.0018199207 0.0021667122 0.00023294013 -0.002175966 -0.000162428 -3.330555e-05 2.9610357e-05 -0.0013281087 0.0003392174 -0.0006065904 0.000793236 -0.0017237784 0.0019929423 -0.00042396178 -1.841848e-05 -0.0003158008 -0.0023611044 -0.0014410948 -0.0006578904 -0.0020630253 -9.184589e-05 0.00010781855 -0.00011926939 0.0011010477 -9.718803e-05 0.00043180303 0.0012944711 -0.0017218774 -0.0024688966 0.0013226513 0.00018544518 0.0022021187 -0.0015543607 -0.0015447526 0.0020070747 0.0023828547 -0.0016954594 -0.0018146288 0.00040724187 0.0008847053 0.00047443327 0.00053557195 -0.0014014257 -0.0005813606 0.0017924934 0.00079172396 -0.0017853269 -0.00092931924 -0.0007179197 -0.0023308748 -0.0018067578 0.00033378237 0.0024778259 0.0023415498 0.0024430894 -0.0022569054 0.0002472028 0.0009212443 0.00089708826 -0.0016463448 -0.001990194 0.00047293145 0.001396806 0.002134658 0.00095639686 -0.0024803223 0.0002111948 -0.00015887688 -0.00054952886 -0.0023393729 -0.0020227593 0.002162956 0.0012539732 -0.0023082115 -0.00058366143 -0.001221546 -0.0011081767 -0.0011069147 -0.0023006483 0.0005092569 0.0012644362 0.00012406964 0.0011243012 0.0012306075 0.002084242 0.00041923806 -0.00017794794 -0.00030082575 -0.0015592758 0.00049325434 0.0018503715 0.00057092827 -0.0016504575 -0.0012004304 0.00034774037 -0.0012219256 -0.0018251067 0.0012658035 -0.0009464637 -0.00016153778 0.0018554535 -0.00057732186 0.0013715292 -0.00035145585 0.0005544129 0.0015763759 -0.002385155 -0.0011019475 -0.0013590292 -0.0018164869 -0.0021694968 0.001580996 -0.0011393452 0.0014978942 0.002189059 -0.00038964977 -0.0023710215 0.0020118149 -0.00022097767 -0.002006287 -0.0019272845 -0.0024150887 -0.002001452 -8.003423e-05 0.0019353108 -0.00012497736 -0.00072721875 -0.0011921207 -0.0021997578 -0.0007078873 0.0011186253 8.972116e-05 -0.00020829873 0.0011119082 -0.0017659263 -0.0013588436 -0.00034653745 0.0020600753 -0.0019487059 -0.0018211675 0.00019325144 0.0007329577 -0.0003326136 0.0014343493 -0.00068837136 0.0023358099 0.00084409636 0.002087947 -0.0014138485 0.0023262913 0.00031907225 0.0010901814 -0.001283503 -0.0012403328 -0.00011433982 -0.0022385882 -0.0015755902 0.0020663338 0.0007185373 -0.0021845447 -0.00080323836 0.0010670079 0.0005780854 0.0011017143 0.000340783 0.00062053406 0.0013846714 -0.000111200345 -0.0020538135 -0.0012570358
따라 0.0013927071 -0.0021432466 0.00045299018 0.0013606194 0.00063093664 0.0013811813 -0.0021293946 0.0021513735 0.0023038492 -0.0006526618 0.0009495733 -0.0001673131 0.0009579139 -0.00029298782 0.0009580584 0.00079244905 -0.0008214983 -0.0018501573 0.0017309075 0.0018852082 -0.00016686163 8.87803e-06 -0.000635308 0.0014700561 0.0005745307 -0.0023835462 -0.0013171028 0.0002070814 0.0010738076 -0.0012789654 -0.0021270572 0.0013054565 4.699687e-05 0.0023699077 0.0005265897 0.0009932937 9.179009e-05 -0.0005393899 0.0010571658 0.000903616 0.001937689 -0.0011643097 -0.0011101234 0.0011643145 0.0011130689 -0.00083454535 -0.001919055 0.0006241324 0.0010766704 -0.0023590722 -0.0015309087 -3.6241872e-05 0.00016339766 -0.0010135403 8.7486056e-05 0.0007672126 0.0018751627 -0.0020345345 0.00025861914 -0.0021808213 -0.0013926732 0.0013890577 0.0019317239 0.0010039812 -0.0023611235 -0.0005220476 0.0015834122 -0.00070362247 -0.002229825 -0.0020195406 -0.0018616827 0.00036854603 -0.0003844882 -0.0006611922 -0.0018611728 -0.0024238804 -0.0003175156 0.00087332726 0.0011155934 -0.0015157056 0.0004989841 0.0021509922 -0.0010726445 0.0011826124 0.0024920292 0.002382917 0.000564023 -0.0018571299 0.0014756655 -0.00039380096 -0.0023361333 -0.0006806529 0.0014767848 -0.00203999 0.00026726507 -0.002303493 -0.0014961374 -0.0018193288 0.002441274 2.2033331e-05 -0.0015079571 0.0005985539 0.0018521459 -0.0023815865 0.0014340476 0.00245478 -0.0008681127 0.0002150266 0.0015862135 -0.001413112 -0.0013027191 0.00050324784 0.0011500248 0.0020897377 -0.000926889 -0.0016828228 0.0023766586 0.00043993883 -0.0006375688 0.0020964427 0.0015653146 0.0014652992 5.84942e-05 0.0019203345 0.0019844025 -0.000783451 -0.001413568 0.0011534798 0.0023295258 -0.0018499715 -0.000806067 -0.0015786899 0.0009836681 -0.00145556 0.000753592 0.0014199046 0.00030687868 0.0014389803 -0.002104245 0.0004742658 0.00089085446 -0.0001286464 0.0024468638 0.002130149 -0.0016033753 -0.002224187 -0.0015939059 -0.0025014791 0.0011096861 -6.2465144e-05 0.00047411205 -0.00205553 -0.0018208704 0.0024718237 -0.00085524906 0.0011090612 -0.0006760835 -0.0005799473 -0.0010470838 -2.9283607e-05 0.00220848 -0.00079731306 -0.0013918112 0.0014668803 -0.00158639 -0.0019231947 0.00062930706 0.00023094603 -5.4334472e-05 0.0023388509 -0.0010674122 -0.0016082164 -0.00043049795 -0.0020845719 0.0008569713 0.0015617699 0.00066213886 -0.0021180187 -0.001030512 -0.0020530731 0.0018819355 -0.0002020811 0.00060662813 -0.0014051748 -0.00038282337 -0.0024264262 0.0009486112 -0.0022315527 -0.0022483347 -0.0022633774 0.00026376487 0.002362298 -0.00035640167 0.001299189 -0.0008006565 -0.0005002619 0.0008049906 -0.0009528955 0.0006213099 -0.00071979896
소재를 6.6982204e-05 -0.00033634488 0.00012545097 0.0006559028 -0.00016476726 0.001996353 0.0013340116 -0.0014649811 -0.0009086988 -0.0011729992 0.0009123822 -0.0023851448 -0.0017677654 0.0012777857 -0.0017252294 0.00038533352 0.0005184301 0.0021384833 -0.0014588315 0.0011346281 0.0022090804 -0.0017307715 0.0012965726 -8.518759e-05 -0.00082628056 0.00044559815 0.0023794004 -0.0016789981 -0.002032171 0.0009978308 -8.718108e-05 0.002170361 6.075264e-06 0.00025184228 0.0009207584 -0.0019586158 0.0024222329 -0.0020628409 0.0008682007 -0.0020567328 0.0019535904 0.0022108941 0.001332574 0.001211845 -0.00034914224 8.590595e-05 0.0007648118 0.00067070435 -0.00034135723 0.0019292261 0.0014821123 -0.0011891266 -0.001010446 -0.0007755262 0.0012137189 -0.0005398187 0.001190685 0.0018771288 -0.0019083609 -0.002126033 -0.00097088685 0.0006046237 0.0015611143 0.0019359831 0.001778273 0.0017566977 0.0004176755 0.00015284041 0.0005154737 -0.00054014206 -0.00035000296 0.0012745715 -0.001830368 0.0016543894 -0.0016133392 -0.0012729483 -0.002126953 0.0005981293 0.0022975712 0.0013467754 6.06993e-07 -8.053382e-05 -0.00038447793 -0.002048329 0.0008761763 -0.0012894204 0.0017680809 0.0017288895 -0.0013442596 -0.002334585 -0.0014660832 0.00027375092 0.0007610814 0.0006991195 0.002204192 0.0023697643 0.00030919156 0.00086283655 0.00045222364 -0.0015290838 0.0002812214 -0.0012442326 0.0023092579 0.00078543613 0.0017738371 0.001607279 -0.0007721653 -0.0024295459 -0.0017658666 0.0022270142 0.00022673486 0.0020100744 0.0007899153 0.0014817447 0.0022485296 0.0010760938 -0.0013184221 -0.002491723 0.0020953182 -0.0015605306 9.851785e-05 0.00023701388 0.0004916436 -0.0022404792 7.51132e-05 -0.0018382011 -0.0010513978 0.00026418394 0.0010710345 -0.00061528734 0.0024304562 0.00084106583 -0.0003032002 0.0004540988 0.00029519372 0.0018746486 0.00094764 0.0010513273 -0.0024320716 0.0016287725 0.0010938795 -0.0019196217 0.0007382034 0.0011468128 0.00022673781 -0.0003322033 0.0008234752 0.0015799591 0.0006128238 0.001607006 0.0018547925 0.0016958361 -0.00019370043 -0.0023738388 0.00045838 0.0019916196 -0.0018791037 -0.001581324 -0.0020119455 -0.000493567 -0.0012963287 -0.0019356075 -0.0024245041 -0.0020402614 0.00012761979 0.0015964922 0.0017807997 0.0019906794 0.0009823075 0.00076205464 0.0013940585 -0.0001570632 0.0012105289 0.0022241254 -0.0012536228 0.00025443456 0.0011609911 0.00059540546 -9.382382e-05 0.00032813885 -0.0016111943 0.0018406666 -0.0013486758 -0.0010088431 -0.00038164487 0.0019760847 -0.0013380529 -0.0007342583 -0.0007716782 0.0021838567 -0.0010555312 -0.0010403483 0.0010988992 7.4326344e-05 -0.0011866108 0.0014903971 0.00016078568 -0.0024285272 0.0016994928 0.0020201206
될 0.0009808763 0.001896075 0.0017122391 -0.00033473107 -0.0010273132 -0.0023339372 0.0011165969 -0.0014908107 0.0022198872 -0.0008804873 -0.00084983284 0.0022434155 -0.0018460989 -0.00039049407 -0.000557197 0.001543473 0.0009088547 0.0010807455 0.0014621712 0.0015922737 -0.0005043942 0.00084268436 0.00070720725 -0.00077704655 -0.001884706 0.002204252 -0.00095058273 -0.002175151 -0.0023697468 0.0017936864 -0.001624831 0.00014169137 -0.001585329 -0.002155038 -0.00019284607 -0.00034662796 0.00090485904 -0.0020908674 -0.0023666052 0.00028242703 -0.0002507843 -0.0020396358 -0.00083627383 -5.6885627e-05 -0.002348418 0.002286786 4.561698e-05 0.00030730412 0.0011518624 0.001806071 -0.0024753083 -0.0001369073 -0.002229408 0.0007006234 -0.0013217764 -0.002451746 -0.0003494817 -0.0017657191 0.0021916213 -0.0024935317 -0.001292535 -0.0006805016 0.0011849593 0.0005758503 -0.0023761766 0.0019041992 -7.5596734e-05 0.0014137767 -0.00039303734 0.0017148913 -0.00020869396 0.0003770369 0.0014274342 0.0004459369 -0.0025027243 0.0023378457 0.0009771695 0.00027941694 -0.0010322832 0.0022426667 -0.001774236 0.00089015526 0.0006161498 -0.001903929 -0.0021008227 0.00055735075 0.00012871978 0.0008881586 0.001448131 0.0016297284 -0.0017332936 0.0010589828 -0.0005830864 0.0016486223 -2.8983625e-06 -0.0016731553 0.001097039 0.00039910938 -0.0015797988 0.0017019615 -0.0010716331 -0.0017304446 -0.000739675 -0.0005385036 0.0007983226 0.0009537091 0.0017176714 3.5901914e-05 0.0023947598 0.0020583356 0.0014135556 -0.0002213748 -0.0019320872 0.0005829634 -0.00012063482 -0.001767208 -0.00056026375 -0.0012578038 -0.0010428437 0.0019443469 0.0008830058 -0.0006511105 -0.0021132815 0.0002137516 -0.00019666059 -0.0022509808 -0.0020943352 -0.0003336952 -0.00218343 -0.002076714 0.0021882667 0.0015323518 -0.0018052722 -0.00040357278 -0.0022294866 0.0006914531 -0.0022926775 0.0009356494 0.00050520035 0.0023778891 0.0006415974 0.0007770979 -0.00022730124 0.00073560013 0.0013061309 -0.0006277748 -0.0012894181 0.0003602811 -0.0007911308 0.0013452354 -0.0018125195 -0.0013399704 -0.001403247 -0.00012939055 -0.002357117 0.002327403 -0.0022613583 -0.00053169753 0.00062940526 0.0009153785 0.0022116138 -3.8677405e-05 0.0012208661 -0.0014243122 0.001963082 0.0020580855 -0.0022375407 0.00052418746 -0.0018569606 0.0019704737 -0.0013831301 0.00015625652 0.00029164023 0.0011037767 0.00062462245 9.281815e-05 0.0010523109 -0.002001727 0.0010725325 -0.00048948877 0.00076448807 -0.0010777959 1.0977891e-05 -0.001190606 -3.8798265e-05 0.0020030914 -5.5203094e-05 0.0019102787 0.0009896451 -0.001495264 0.0014444179 -0.00044318734 -0.00024043757 0.00054903876 -0.0005503028 -0.0006782305 0.0014410071 0.0009040899 0.0021006775 -0.0011026579
많은 -0.00026181818 0.0014258998 0.0023309395 0.0010866281 0.0010229351 -0.0018842876 -0.001582605 -0.0014072008 4.6283283e-05 -0.0022087516 0.0012809924 0.00071099063 0.001318042 -0.0019661025 -0.0012143311 -0.0007068761 0.001948349 -0.0006095439 -0.00017964827 -0.0015239097 -0.0017003312 0.0012243264 -0.0023006087 0.00024372003 0.0018150874 0.0024915002 0.00049031863 -0.0018131637 -0.001154104 -1.397365e-05 0.0010902318 0.00015734523 -0.0022930636 -0.000551964 0.002337491 -0.0015671132 0.0014832378 0.00045168868 -0.0019956445 -0.001770347 0.0010508938 0.0014770584 4.9345886e-06 0.001235881 0.0016551303 -0.0019348932 0.00013298151 0.0017839271 -0.0017851872 0.0019623833 0.00047964536 0.0016519931 -0.0020385012 0.0010575553 -0.0011347274 0.00052825204 4.2787175e-05 -0.00097128394 -0.0019861502 -0.000742444 0.0015927065 0.0023361791 0.0016976041 -0.00055661524 0.0013974773 0.0015190949 -0.00071265356 0.00016777733 0.0011812755 -0.00076067296 0.001228964 -0.0009771908 0.002007994 0.00091724057 -0.0016481662 0.00044442262 -0.00075963483 -0.00073984556 -0.00020628523 -0.0020886667 -0.001147108 0.00061235053 -0.0022669577 0.001199103 -0.0008042866 -0.00013756129 -0.0024356102 0.0012754872 -0.0023411445 -0.00034862416 0.0013242892 0.0010097845 -0.0018826667 -0.0014608505 0.0006440833 0.0017171876 -0.0024964593 0.0011068641 0.00086788536 0.0005409976 -0.00032331594 -0.00034548054 0.00030513617 -0.00228374 -0.0013863078 -0.0020327622 -0.0017176839 4.144962e-05 -0.002229205 0.00068844337 -0.0011334782 -0.0017501134 0.00073372235 -0.001524769 -0.0020262161 -0.00027289448 0.0005485525 0.00026292625 0.0014487355 -0.00020811679 -0.0004459253 0.0007803695 0.0005711766 0.0016002157 0.0010084629 -0.0019990143 -0.0017462319 -0.0023236459 -0.0023138127 -0.00025493387 -0.0013424595 0.00025535535 0.0022067484 0.0013118985 0.0019773073 0.0018134364 -0.00051245233 -0.00093507936 -0.0020233947 0.0023431585 -0.0012793189 -0.0005854642 0.0021847733 0.00021554719 -0.0008506218 -0.002401111 -0.0012780541 -0.002262495 -0.0019886445 -0.0016063668 -0.00026118776 0.0005982676 -0.001762079 0.0008459359 -0.00040658453 0.0014378533 -0.00061085797 -0.0018597007 -0.00096859876 0.002215257 -0.00035689343 -0.0014796811 0.001766394 0.0017713057 -0.00089051673 0.0022168695 -0.0004910314 0.0020462777 0.0016150868 0.0010222227 -0.0013367916 0.0016180007 -0.0016214785 0.0009095066 0.00027029618 0.00054060674 -9.319528e-05 0.0017123088 0.00078938174 -0.00042003035 -0.001994353 -0.0014237245 0.0016964761 0.0015116321 -0.0024532161 -0.0020368951 0.0013938524 0.0007822765 -0.0003236979 0.00072404905 8.821786e-05 -0.00225586 0.0005091724 -0.00025198565 0.0024759586 -0.0018498589 0.0012381576 0.0006833211 -0.0008290709 0.00073971
역시 -0.000474607 0.0012545892 -0.00023858335 -0.0022790001 0.0022380522 -0.0015319637 0.0009850465 0.0005684926 0.001893395 -0.00072902103 -0.00048534872 0.0019568861 -0.0005492827 -0.00012680847 0.002245308 0.0012478882 0.0013747031 0.0016781407 0.00016138739 -0.0024758463 0.0011768085 -0.002081735 -0.0008612217 0.0016776581 0.00040169465 0.0010113383 -0.0010851184 -0.0012844757 0.0015598957 0.0024230913 -0.0022602964 0.0024998072 0.00022959933 0.0020577803 0.00090365286 0.00015520677 -0.00027515084 0.0012752888 0.00029760916 0.0017685562 0.00085416425 0.0017551 -0.00087377377 0.002294632 0.0003975218 0.00016594035 0.0019305415 0.0014574134 -0.0011777648 0.0019724625 -0.0013239925 -0.0008888866 2.789585e-05 0.0010796256 -0.00061381987 -0.0024435294 0.0011207534 9.601438e-05 0.0009465627 -0.0024940192 -0.0018496991 -0.0024532015 -0.0015058995 0.0024402647 -0.00092719425 0.002400479 0.0016326614 0.0022259888 -0.00041560372 0.00021285753 0.001676375 -0.0024371024 -0.0016260776 0.0018089076 0.00051066757 0.00035677326 7.332932e-05 -0.001008271 -0.00043662227 -0.0011969056 0.0005441203 -0.00026789692 0.0024617638 0.00027361923 -0.0017916058 0.0008617354 0.0013940886 -0.0017047824 -0.0020000744 0.0021576614 0.0003385429 -0.00047179183 -0.0020073394 -0.0018402473 -0.0023913896 -0.0015246408 -0.0007384849 0.0020338744 -0.0020097222 0.0022058564 -0.0009846501 0.001991548 0.00045292784 -0.0020906597 -0.00092120905 -0.00024477128 -0.0016020135 0.00106516 -9.450222e-05 -0.0017031501 0.0007983798 0.002473133 -0.00018885621 0.0024761457 -0.001284589 -0.0024539854 -0.0007952157 0.00039321993 0.00017940525 -0.0017633892 0.0010627445 0.0014118234 -0.0019465773 0.0007612262 -0.0015427944 -0.0012874218 0.0008986837 0.00084809936 -0.001373312 -0.0010416069 0.0009808702 8.664888e-05 0.002500769 -0.0011731007 -0.0014822196 -0.0021732915 -0.0018633653 0.0004218143 0.0010330785 0.0013837105 0.0004572366 -0.0009897423 0.00075157604 0.0003427339 -0.002186241 0.0013955395 0.001970314 -0.0010866727 -0.0012143744 -0.00083505455 -0.0016655854 0.0003843964 -0.0012241873 -0.0014999978 -0.0015021866 -0.0011354715 -0.0007873826 -0.00023546691 0.0010714415 -0.0019469532 0.0005030226 -0.0021792888 0.002237675 0.0021036451 -0.0023014396 0.0009792851 0.0012641669 -0.0017373994 -0.00021766266 0.0014519073 -0.001971542 -0.002334809 0.0012622166 0.00096873514 -0.0015752553 -0.0016949375 0.000876736 -0.0004960662 -0.0017980986 0.002214727 0.0010057737 -0.00015224687 0.002220197 0.0013671096 0.0017225407 -0.0021626123 0.0013248295 0.001192839 -0.0004287018 0.0021670284 0.000170492 0.0009688256 -0.0006094284 0.0022457906 -0.0019820149 0.0010518774 0.0018051466 0.00010241325 -0.0019142688 -0.00014523558
영향을 0.002459143 -0.001386964 -0.0020675042 -0.00033523657 -0.0019635456 -0.0009810103 -3.987237e-05 -0.00027410296 -0.0010375637 -0.0014912824 -0.001959921 -0.0013739882 -0.00037916744 -0.002445322 5.5507586e-05 -0.0009729676 0.0017251045 0.0015466374 -0.0018985145 0.00022602845 -0.00023316343 -0.002354629 0.00053624454 0.00090755377 -0.0023910988 0.0011030977 -5.538489e-06 -0.0014868526 -0.0010491173 0.0022314657 0.0010282747 0.001845696 -0.0012127981 -0.0016390381 0.0015974898 0.0010549645 -0.00057430833 0.00084671006 0.001618728 0.002109827 0.0006212168 0.00092865684 4.1402163e-06 2.2167162e-05 0.002403252 -0.0010679865 0.002087257 0.0016646122 0.0009777719 0.002184833 -0.00053849415 -0.0018887703 0.0006898939 -0.0019253811 -0.002129979 0.00012655668 0.001105053 0.00046201205 -0.0015948528 -0.0014224201 0.0018837022 -0.00065767765 0.0015539757 0.002444467 -0.00043222366 -0.00011918123 -0.0012622162 -0.0003242992 0.001605037 -0.0021093695 -0.002164605 0.0010735784 -0.0010246271 0.00052138435 -0.0010879205 -0.0017130744 -0.00043584805 0.00044053106 -0.00037486 -0.0013159759 0.00224842 0.0014792939 0.00016623933 -0.0014977461 -0.0006099358 -0.0020025116 -0.002262154 -0.0008732995 0.002191075 -0.0013245643 -0.0019737259 0.0023530452 0.0019094076 0.0024763767 7.0007416e-05 0.0023268794 0.0012592322 0.0005172463 -0.0007130895 -0.002208199 -0.0016892302 -0.0002069305 -0.0009060032 0.002352893 -0.0014978288 0.0010168899 -0.0019298166 8.0867154e-05 -0.0011498106 -0.0016763776 0.0003410581 -0.0017722137 0.0019015336 -0.0014964538 0.0015465447 -0.00076964876 -0.0006458626 0.00058108225 -0.00026355014 -0.00235425 0.001189177 0.00027292199 0.0007800475 0.0025083176 -0.0017977124 8.163456e-05 -0.0004872857 -0.0014582992 0.0010363626 0.0023673787 -0.0024091406 0.0009235682 -0.0020736963 -0.0021467463 -4.36462e-05 -0.0024340681 0.00162965 -0.00052803755 -0.00209096 -0.0006931968 -0.001166585 0.0012734095 0.00082977983 0.00080018933 -0.0012720355 0.0017411364 0.00043631042 0.0024999683 -0.0007839836 -0.0023611104 -0.00068257627 0.00031695646 -0.0007423401 8.500992e-05 -0.0021025173 -0.00061356253 0.0012423455 6.910319e-05 -0.00038507598 0.00031205727 0.002268335 0.0005724409 0.0011044354 -0.0007518893 0.00047471002 0.0012881482 0.0013281011 0.0018337138 0.0023665782 0.00057506387 0.0003895751 -0.0017902135 -0.0019669863 -0.0013976676 0.0007643131 -0.0010351226 -0.000262021 -0.0018009348 0.0009013913 0.00089293765 0.0016254624 0.0013502346 0.00161087 -0.00062296464 -0.0018803802 0.002354235 -0.002355574 0.0023579753 0.0016021493 -0.0015979101 -0.0015481139 -0.00028619036 0.00068736734 0.00034320477 -0.00047478647 0.0003622082 0.0014075565 -0.002148045 -0.002351388 -0.0013471594
많이 0.0010643082 0.0024979755 0.00026230127 0.0014562614 -0.0011385855 0.0013036293 0.0024768282 -0.0016763284 0.001441417 0.0013332356 -0.0003793692 -0.0012230995 -0.00027626383 -0.001058184 0.0021844083 0.0021439805 0.0008450322 0.00040442543 -0.002399977 0.00175916 -0.00081674726 -0.00059126556 0.00043899674 0.0016425786 0.0016273308 0.00021572663 0.0013681459 -0.0016506135 -0.001873015 -0.001019506 -0.0014440522 0.0019062159 0.0013668344 0.001631433 0.00091843033 -0.0018829488 0.0008783861 -0.0013802903 -0.0008744127 0.00039518558 0.0019300982 -0.0017036477 0.0016147601 -0.0016025505 -0.0024848895 -0.0011797794 0.00090265274 -0.0022199904 -0.00027660315 -0.00023323602 -0.0010557184 0.0004288504 0.0017771476 -0.00012356926 0.0020063545 0.0012914801 -0.0019010064 0.001259972 -0.00174084 -0.0010941657 -0.00031456983 0.0017027355 -0.00066506426 -0.0022553788 0.00051247416 -0.002139311 0.00095750793 -0.0012388374 0.00020628652 -0.0010495316 -0.002201296 0.002511661 0.0014064009 -0.0014633152 -0.0006330658 -0.0011729912 -0.00032909238 -5.1112533e-05 0.0002642539 0.0014501147 -0.0012571724 -0.00077986065 0.0011612271 0.00075225614 0.0019961067 0.0021535147 -7.509122e-05 -0.00081849325 0.0005026494 -0.0009154857 0.00047327357 0.0016107742 -0.0022706965 -0.0010882078 0.0007203835 0.0014619533 -0.001872732 -0.00090483966 -0.0019939914 -0.0020417196 0.0005045142 8.407041e-05 0.0010618439 0.0009955349 0.0011299264 0.0019426071 -0.0024666204 -0.0010547794 -0.0013042445 0.0006687577 0.0018660608 -0.00024168854 -0.000519819 0.0015513444 0.00064841413 0.0013261541 0.0010644259 -0.002121519 -0.0011541368 0.0013073352 -0.00056614354 -0.0007752529 -0.0005187748 0.001425166 -0.0012253999 0.0023224466 0.0016786958 0.0012101291 0.0010640173 -0.00027674847 0.0005521313 0.0020984104 0.0020448503 0.001039206 0.00067988626 0.00021734217 0.0016400163 -0.002198455 0.002359117 0.002015591 -0.0018533336 0.0018468418 0.0024746263 0.0011529364 0.00021696887 -0.001517111 0.0002537034 0.0016058795 -0.0007935168 0.0024142324 0.0017787048 0.0010041941 0.000120602024 0.0015136257 -0.00014925294 0.0017034984 0.0018138841 -0.00072608 -0.001427594 0.0018179779 0.0008330616 -0.0010371531 -0.0016003777 0.0013287629 -0.0013763306 -0.0011949592 -1.3306207e-05 0.0021275245 0.0011616865 -0.0021280113 0.0010362722 -0.002041561 -0.002250895 -0.00054335716 0.0018574616 0.0018259203 -0.0023720723 -0.0013857457 0.0011973223 -0.0006306354 0.001816938 -0.001368191 -7.239348e-05 -0.0006692758 -0.000590887 -0.0024524154 -0.00087084406 0.0018552293 0.00083796104 0.0020990951 0.0016497213 -0.0010850301 -0.001764978 -0.002103073 -0.00042369525 0.0015617613 -0.0010006757 -8.4877065e-05 -0.0023509285 -0.0003167229
- 0.0014861582 -0.000895854 -0.0012413003 0.00073411147 -0.0022245103 -0.0016437208 0.0024315964 0.0023289644 0.0001580188 -0.0021732645 -0.0020296813 -1.741823e-05 0.0009467308 0.0017457164 -0.00076671666 0.001750865 0.0009702122 0.00072276883 -0.0012962928 -0.0024006108 -0.00024217839 0.0023725796 -0.0012527773 -0.0011874919 0.0021812373 -0.0014347624 0.0001776755 -0.0019215546 -0.0019875597 -0.0007341803 0.0011727007 0.0014151245 -0.0024666127 0.0021933625 -0.0012567282 0.001499975 0.0014249865 0.00069024856 0.00024653843 -0.0017165553 -0.0021664642 -0.0012528154 -0.0010233575 0.0012366298 0.0008139758 -0.00092956313 0.0018550877 0.0023262852 0.0013871785 0.0003566221 -0.0018537305 -0.0019166612 -0.0016498182 -0.0009631883 1.861004e-05 -3.697095e-06 -0.001976594 0.0021047152 0.00084232056 0.0016241246 -0.0012627776 -0.002175465 0.001366095 0.0017405986 0.00065076136 -0.0010817229 0.0023721526 -0.0011754227 0.0023388767 0.002406236 0.00064327504 0.0013983231 -0.0021409658 0.0015788495 0.0010009139 5.052699e-05 -0.0011230003 -0.0023549616 3.430886e-06 -0.002423625 0.0010995036 0.001970157 -0.0008596276 -0.00085245597 0.000814652 0.0014146836 0.001308869 0.0016812197 0.0014643678 0.0023665293 -0.0019486622 -0.00056248356 -0.00076492544 -0.0003366343 0.0014604595 -0.002332844 0.00095951604 -0.00068798615 0.002281512 -0.0012873319 -0.00043156708 -0.0015448898 0.00056911516 0.000857802 -0.0012052102 -0.0023724616 0.0015892712 -0.0018805502 0.00022150646 -0.0024295163 -0.0022954596 0.0013871285 0.0023624848 0.0008279467 0.001760421 -0.0022096853 0.0014597992 0.002100665 -0.0001711995 0.0004980353 -0.0016791347 -0.0017228978 0.0019824149 -2.893811e-05 0.0013885273 0.0018281025 -0.001542658 0.001235799 -0.0011835207 -0.0012453488 0.0004051853 0.0012894563 -0.000958232 -0.00070486666 -0.001796787 7.038097e-05 0.00073302345 0.0006311493 0.000628041 -0.0023761312 0.00062712346 -0.000786354 0.0009245369 -0.0023815276 0.0021489346 0.0017466435 0.0008119309 -0.0019353012 -0.002495705 -5.0426162e-05 0.0006083057 0.001097405 0.0013727593 -0.00039074212 0.00073390664 -0.000898096 -0.00083333696 -0.0018609944 0.00087712647 0.00083387905 0.0016934159 0.0010681577 -0.0024872907 0.0022086909 0.0019281071 -0.0009171296 -0.00057252106 -9.8801705e-05 -0.0016694098 -0.00031064986 0.000744789 0.0022406054 -0.0003337672 -0.0006595439 0.002248008 0.00056467985 -0.0009158079 0.0012865989 -0.0018244643 0.0017062584 0.0024131427 -3.7645503e-05 -0.0018046064 0.0005900676 -0.0002954403 0.0021867 -0.00081280863 4.9347396e-05 -0.0008913823 -0.0010131715 0.0004477662 1.271695e-06 0.001944621 0.00073698314 0.001836636 0.00080122595 0.0017949549 -0.0020886683 0.0007026757 0.0005690236
사용하는 0.001326795 0.00030983036 0.0006822297 -0.001135379 0.0007820939 0.0017962367 -0.0011567967 -0.0012853924 0.001202833 -0.0020627214 -0.0015460213 -0.002086998 -0.0015438251 0.0010025396 -0.0013502939 -0.0016811286 -0.0004217972 0.0010212365 0.0006184311 0.0009579347 0.001762476 0.0013502669 -0.0009903488 0.00056892657 -0.0015922196 -0.000525259 -0.00067792943 0.000875914 -0.00042619332 0.00090598274 0.0020474237 0.0010315278 0.00211263 0.0022464038 -0.0003121402 0.0016205747 0.001758282 0.002120769 -0.0015166647 0.0006806961 -0.0011070957 -0.00036314782 -0.00067851593 0.0022916903 -0.0019357993 0.0022762937 0.001776901 0.0017888383 0.0012777837 -0.0013200019 0.0017922195 -4.692854e-05 0.00012842956 0.0019028733 0.0004545125 -0.0022310598 -0.000120919096 0.0020059263 0.0012463152 -0.002166873 -0.00010500024 -0.0012481413 -0.0003894114 0.0016319414 0.0022208814 0.0020557607 0.00084609655 -0.00039442908 0.0015552453 0.0013122463 -0.0019482453 -0.00033917275 0.00039154442 -0.00019010971 0.0020880925 0.0002835424 -0.0016957617 0.0013578377 -0.0007229467 -0.0019142447 -0.00096866774 0.00026356906 -0.0011194601 0.0017917312 0.0018900345 0.0022364662 -0.0017540519 -0.00043241653 0.0011739006 0.0020816743 0.00193763 -0.0021481903 -0.0022604058 -0.00019348894 0.0017670885 0.001598993 -0.00028884868 -0.0013921617 0.001265251 -0.00077856914 0.0003012786 -0.0007409898 0.0006344342 -0.0007523682 0.0024978062 -2.8214057e-05 0.0003405689 0.00080288196 -0.0024854855 0.00017621546 0.0005323532 0.0017968792 0.0012648302 0.0015983481 0.00051861367 0.0018579293 -0.0003021807 0.0018405846 -0.0021517444 0.0016860317 0.001337509 0.001874521 0.0007119717 0.0017450167 0.0013637604 0.000975927 0.0018360317 0.002156177 0.00024232075 0.00056319556 -0.0018780552 0.002204557 -1.3324631e-05 0.0023146211 0.0021261277 -2.8193823e-05 0.0006151432 -0.0013417198 -0.0011983649 -0.00186445 -0.0016105756 3.2276887e-06 -0.00081208284 -0.0011214681 0.0001036691 -0.0017050799 -0.0006423328 -0.00013580437 -0.0006118232 0.0015879042 0.0015879667 0.001130326 0.0019254355 0.0024534876 -0.0018738477 0.0009666753 -0.00087986095 -0.0017343736 0.0017844094 -0.00077462726 -0.0020886702 -0.0005542675 0.00020981097 -0.000805235 -0.0022498942 -0.00046787455 0.00037826184 0.0020015892 -0.00222629 0.0022143016 0.0022482553 0.0019146543 0.0016950754 0.0010657423 0.0024698768 -0.0020408572 -0.0020492245 -0.0007781252 -0.0022814674 0.0019851206 0.0004065747 -0.0016145208 -0.0013755835 0.001751642 -0.002362484 -0.0012916424 -0.0023101198 -9.688376e-05 0.00016640208 0.0015110716 0.0006448713 -0.002432868 0.0014322292 0.0012073228 -0.0020812328 0.0021051075 1.5684242e-05 -0.0002563982 -0.002023732 -0.00064874114
간섭을 0.00070196524 -0.0013313045 0.00017082194 -0.00089079863 0.00059734506 -0.0014646541 0.00016314445 -0.0002428157 -0.001905492 0.0023932578 -0.00022368973 -0.002237307 0.0017258034 -0.0017374658 0.001994501 -0.0007461847 0.0013218946 0.00049029215 -0.0017120044 0.0014398354 0.0023277176 4.9194918e-05 -0.0011799071 -0.00089502963 -0.0015752456 0.0014085487 -0.0014352317 0.00016550467 -0.0015119308 0.000891684 -0.0021411541 0.00061891734 -0.0006644411 -0.0022162297 0.0003475161 -0.001068596 0.0015998081 0.0004352741 -0.000485993 0.0016439145 -0.0013279807 -0.0016640773 0.0015915885 -0.0001683172 -0.0014551472 -0.00010906814 0.00024367335 -0.002193381 -0.00032225522 0.0021617948 0.001219005 -0.0011986281 -0.0019374761 -0.0016580763 -0.00060187007 0.001942055 0.00020566817 0.00058560394 -0.000901595 -0.0015957648 -0.0010107424 -0.00021618164 9.3819646e-05 -0.0014217499 -0.0005063173 -6.5423854e-05 0.001405366 0.00018678521 0.0020850487 0.0008246192 0.0015380101 0.0019648983 -0.002275436 -0.0016675276 0.0010336012 -0.0021241037 0.0011448538 -0.0004403933 0.00045002377 0.0023739324 -0.0017327435 -0.0017278201 -0.0010690934 -0.0006136707 0.0024213484 0.0018046582 0.00015129035 -0.00082708173 -0.0019936562 0.0015357726 -0.0022610691 -0.0009465392 0.0001090754 0.0022221762 -0.0020779814 -0.0014689442 -0.00067312043 0.00020079395 0.0023330871 -0.001209367 0.00047587155 -0.002040232 0.00085585524 7.2292976e-05 -0.0013002015 0.0014251986 0.0014747346 0.002039948 0.00028215596 0.0016736115 -0.0023704376 -0.0018769829 -0.0007201239 -4.625511e-05 0.0020317072 0.0013463042 -0.00042806866 -0.0009449633 0.00067280926 0.00015824744 -0.0021710426 -0.0019421246 0.002066115 0.0014139279 -0.00024085399 0.0012565743 -0.00048317574 -0.0018390006 -0.0005786386 -0.0021280309 0.0016967097 0.00034842524 0.0008343485 -0.0020940567 0.00016017388 -0.0018341744 0.0003475436 -8.487194e-05 -3.6616297e-05 -0.0017621379 -0.0001408648 0.00079420424 0.0002182221 -0.0010144289 -0.00066934153 0.002312725 0.0017253679 0.001415532 -0.0004992353 0.0012029819 -0.0003580375 -5.552594e-05 -0.0010830194 -0.0011436832 0.0015944566 0.0004451879 -0.00039677316 -0.0024295792 -0.0013938848 -0.00013195294 -0.00039631454 0.0018242465 0.00041841686 0.00011231754 0.0014514342 0.0014636707 0.0010442217 0.0014733105 -0.0018634724 -0.00047972903 0.00048056012 0.00048441472 0.00079223164 0.00046253705 0.00062172173 -0.0009633553 -0.0021175297 0.0014146365 -0.0023974276 0.00065882556 -0.0020492384 0.0012281857 -0.0015198727 -0.0012738602 -0.00048832985 0.0012452442 0.00037448766 0.00029096063 -0.0016321178 0.0016938987 -0.0011992498 0.0020904024 -0.0018281849 0.001071615 -0.00086143275 0.00022783532 -0.0007251056 0.0015163171 0.002134112 0.0011633041
레이더 -0.0010900013 -0.0006626429 -5.1794377e-05 6.823252e-05 0.00025713455 0.0020480228 -0.0009790928 -0.0023294548 0.0016690139 0.0020969054 -0.0015084738 -0.00017105209 0.0018646792 0.0003703025 0.0019782723 -4.401892e-05 0.0005552989 -0.0019010471 0.0016368319 -0.00066541083 0.00072545564 -0.0016056811 -0.0017624701 -0.00042281233 -0.00027590813 0.00072095776 -0.0015231031 0.00091320166 0.0013359945 0.0010464988 0.0018247023 0.0004104915 0.0009860599 -0.0013276222 0.0017685748 -0.0020646928 -0.0021394994 -0.0021233195 -0.001445603 0.0019526428 0.0017418645 -0.0014276289 -0.0013881335 -0.00233552 0.0012860951 8.024372e-05 0.0001811473 -0.0012416677 0.0006286305 -0.0018004519 -0.0019431883 -0.001792515 -0.0023688036 -0.0001753229 0.0012656124 0.0021381944 -0.0016521683 -0.0015320445 -0.0014769644 0.0024004132 0.0011680888 0.0005602364 -0.00075750926 -0.00092732126 -0.0011104108 0.0012782287 0.00018040648 -0.0019812107 -0.0024298104 -0.0022028747 0.0022094469 0.0006721547 0.002095761 -0.0023474246 -0.0014925494 0.0005671215 -0.0003959855 -0.000940299 0.0024223665 0.0023377326 0.0014024086 0.0011134598 0.0006674462 0.00043257425 -0.0013958581 -0.00026938927 0.00082102197 -0.0006443065 -0.00013217035 -0.00027281808 -0.0012011506 -0.0007809788 0.0006932426 0.000121157325 -0.0009513573 -0.0011648571 -0.0016907849 0.00035741378 -0.0021037876 0.0010501506 0.002007241 -0.0015701244 -0.0021857575 -0.0022968804 0.0019883243 -0.000416161 0.0017039266 0.0018794253 -0.0011367699 -0.00035956764 0.0009989357 0.0023146085 0.001517022 0.0015761617 0.0024991944 0.0007476828 9.999282e-05 0.0016318597 0.0007083048 -0.0011871485 -0.0008287636 0.00063589617 0.0018760512 -0.0020905642 -0.0013934058 -0.0020808706 -0.00086881075 -0.0021309063 0.0009778565 0.002416153 -0.001542787 -0.0012025423 -0.00077253964 0.0012738012 -0.0014427056 0.0016460277 0.0002460393 -0.00077202235 -0.0015944066 -0.0009859478 -7.716512e-05 0.0007786267 0.00047174186 -0.0015457042 0.0015012596 -0.0014933067 -0.00040521435 -0.0018460774 -0.0016103818 0.0008993057 0.00028993987 -0.0010137154 -0.000835081 -0.0014607583 -0.0011302067 -0.0020666218 0.0008259111 0.00057314115 0.0006816656 0.0012587081 0.0007126001 0.00028562342 0.002294432 0.0015463607 0.0011806375 1.7776825e-05 -0.0012167725 -0.0022982378 0.0020803383 0.00033525255 -0.0022613835 0.0012135102 -0.0019740514 0.0022847466 0.000768426 0.0014713148 0.0024489062 0.0013856341 0.0019173885 -0.0005968584 0.0012885459 0.0014572936 -0.0022965665 0.00024309408 0.0011104012 -0.0011499091 -0.002245376 -0.0014601487 -0.0010988933 0.0018050228 -0.00203657 0.00042770142 -0.0013422 -0.0015723739 0.0010001624 0.0009897214 0.002310862 -0.0005568194 -0.001942022 0.00077083934
스텔스 -0.002067617 -0.0010003943 0.00027484933 -0.001831945 0.0002589343 8.369237e-05 -0.0019133994 -0.0024236646 0.00014220062 -0.0003461515 -0.0019434352 0.0011268297 -0.0017395964 0.0012877246 0.00086484797 -0.00063363684 0.0002790774 -0.0008197668 0.0003183209 -0.0013085054 -0.00069520774 -0.00032402267 -9.6057134e-05 0.000758916 0.00195668 -0.0005517661 0.00092965487 -0.0023432337 -0.0016582281 -0.0016277034 -0.0016428772 -0.0018494212 0.0015893927 -0.0017594573 0.00024339154 0.00030782216 -0.00067933125 0.0017749626 0.0002852846 -0.0017561902 0.0024195593 0.0011291964 0.0022144732 -0.00074232894 -0.002446964 -0.0022180176 0.0008321656 -0.00033769148 -0.0021607492 0.0010168775 0.0004933009 0.00041612363 0.0024109122 0.0018005093 -0.00081346754 -0.0013712737 0.0013173303 -0.0013519495 0.00040041536 -0.0011264508 0.0018694302 0.00012602568 -0.0019677018 0.00096254685 0.0005838954 0.0006351173 -0.0024762964 0.0013944692 -0.00076481904 0.001313217 0.0015966742 -0.0008280766 0.0016436623 0.0021973932 0.0023475229 -0.0006268737 -0.0019081758 0.0018427637 0.0010362728 -0.0015084344 0.0008748882 0.0008695108 0.000962092 -0.002477895 0.002139534 0.0010752318 0.00107232 0.0007953967 -0.00032973094 -0.002363019 0.0005488203 0.0014460746 0.0024251682 0.0011885209 -0.00045394932 -0.0016071689 0.0018303647 0.0008327163 0.001102848 -0.00044675753 0.0014246404 0.001161134 0.00040792485 -0.00047738635 -0.000825702 9.750692e-05 -0.002323828 -0.0021929846 -0.00045159136 0.0020178212 -0.00176709 -0.0021270353 -7.09131e-05 0.0007128791 -0.0012231729 -0.0007197935 0.00091300067 -0.0010128133 0.0013668285 0.0015941925 -0.0016648341 0.0019678036 0.0010139421 -0.00089318317 -0.00095565297 0.0014483829 -0.0018033312 7.863365e-05 -0.0018326713 -0.00018416872 -0.002175468 0.00036726697 -0.0018204307 0.00020506038 -0.0016649179 0.0018188085 -0.00027195236 0.0021174334 -0.00096685166 0.0016179691 -0.0009629758 -0.0015622181 -0.0018219723 0.0008153569 -0.0009030625 -0.0024240557 -0.0023659307 0.0017307366 0.0020448784 -0.001963198 -0.0015366921 0.0014216806 -0.002077191 0.00044949437 -0.0020046837 0.0004585994 0.0013332389 -0.002188386 -0.002213704 -0.0016249041 -0.0019559572 0.00025702256 0.0006244859 2.7584333e-06 0.000577758 0.0011737657 -0.00063939637 0.0016280878 0.0014048283 0.002169447 -7.525071e-05 -0.00131458 -0.00029981698 -0.0011912355 0.00015174608 0.00045537524 0.0019471367 -0.0024944297 0.0023855823 -0.0009681383 -0.00027366332 0.0010984764 -0.0020309798 -0.0013076221 0.001644428 -0.00065922533 0.00019280627 0.001869528 0.0011986529 0.001298338 0.0022725652 -0.00043019623 0.0010450713 0.0017539097 -0.0012859143 0.0014136882 0.00035526065 -0.00080569804 0.00071524084 0.002333048
다른 -0.00029530807 -0.0010328398 0.002129254 -0.0013451097 0.00074846507 0.00045322708 -0.0003018649 -0.0013169182 0.0010290731 -0.00050719106 0.0021634721 0.001479169 0.0005619624 0.0014730718 -0.0012113097 0.0012279355 -0.0023125762 -0.0014992459 -0.00096262107 -0.0010955454 -4.993635e-05 -0.0008530826 -0.0019707545 -0.00087025814 0.0014156142 -0.001877712 -0.0019166915 3.6798872e-05 0.0018175272 -0.0015515412 0.0013109135 -0.00028052248 0.0018055604 -3.294551e-05 -0.0014167042 0.000338094 -0.0010740175 0.00092203525 -0.0022605578 0.001011355 0.00202644 -0.0006199968 0.0005857599 0.00067271513 -0.00016032158 -0.00090518215 0.00040988403 0.000769241 0.002353099 0.0011413473 0.00018606015 0.001316479 -0.000826759 0.0010353422 0.00065430236 0.002203114 0.0019766663 -0.0012234175 0.00021782826 0.0018889243 0.0023843895 -0.0021411194 0.00032961663 0.0010898248 0.002312371 0.0016996062 0.0013381275 0.0017094959 0.0017057915 0.00034661093 -0.00036272954 -0.0023256824 -5.869888e-05 -0.0008992619 0.0021101765 -0.0016014485 0.00024098043 -0.0018804751 0.0020380153 -0.00024274223 0.0019444346 -0.002234327 0.000102211925 -0.0010622789 0.0023961165 0.0024055084 0.0014645393 0.0010562672 0.0022039164 -0.0011804546 -0.0021436736 0.0014967772 -0.0015086317 -0.00065477856 -0.0006622723 0.0009518395 0.0023166349 0.0023260287 0.0020247435 0.001813286 -0.0024464077 -0.0015293029 -0.00039509032 -0.0017627107 0.0007815433 0.0013167262 0.0014759877 -0.0023240184 -0.0006844045 -0.002490539 9.880373e-05 0.00084013166 0.00011791155 0.0024220936 0.0023967628 -0.00059449923 0.0009692618 0.0020910841 -0.0018502986 -0.0022583557 -0.00017259797 -0.00063763646 -0.0019925467 -0.0018726836 0.0012924678 -0.0020572285 0.0024004632 0.0020141988 -0.002011697 0.0008861219 -0.0015313549 -0.0015775646 -0.00038512298 0.0022247294 0.0014261807 -0.00015705403 -0.0019452138 0.0018136875 0.002256883 -0.0020302648 -0.0002173694 0.0015754388 -0.00041334264 -0.0004941858 -0.0009905674 -0.0022773657 -9.4738054e-05 -0.00034880795 -0.00062038616 -0.0015507616 6.37595e-05 0.00060679007 -0.0008338346 -0.0012241765 0.0014445768 0.0006149548 0.00044990366 9.4884694e-05 -0.00038860377 0.0016680313 0.0016955859 0.0019721398 -0.0010801367 -0.00083748513 0.0024742081 0.0019222358 0.0006129448 0.0021929622 0.00097215903 -0.0009575803 -0.0007024108 -0.00089129 -0.00248243 -0.0017132506 -0.0011898801 0.0013799149 -0.0013282086 0.0021102196 0.00087044714 0.00030373698 -0.00090059073 0.0019444898 -0.0011751971 -0.0017005424 5.5857803e-05 -0.0015633166 -0.0021243969 -0.0023292026 0.0004519793 -0.00087968743 0.0018268679 0.0015105526 -0.002023625 -0.00045808696 0.00090189144 0.0002262072 0.0006166214 -0.0010641031 -0.00030315924 0.0020537372
아니라, 0.0023602378 0.0013186807 0.0023563534 -0.0015831621 -0.0013770553 -0.00056831713 -0.0006699206 -0.0019518905 -0.0022804702 0.00067630806 0.001774312 -0.0010609536 0.00083527964 0.0016380447 -0.0011979145 0.000964242 0.0015754367 -3.261579e-05 -4.093163e-05 -0.0012935124 -0.0007069718 0.0021309871 0.0011091167 -9.291865e-05 -0.00074919616 0.0023268904 -0.00052062364 -0.0017907466 0.0011773726 -0.0017941408 0.0014722006 0.0024333505 -0.0017219697 -0.0018415226 0.0007795728 -0.00019575004 0.00038274805 -0.0018775843 0.00060306705 -0.0012368584 -0.0006205789 2.570497e-05 0.0013665829 0.0012033948 -0.0011566487 -0.0014401351 -0.0024399688 -0.0014705916 -0.00040683892 0.0009960079 0.0006212057 0.000746034 -0.00027188528 -0.000371166 -0.0024921827 -0.0020895726 -0.0006853224 0.00057723484 0.0007102709 -0.00021765809 -0.0015274334 -0.000734069 -0.0015994593 -0.00040882063 0.00023826094 -0.002009435 -0.0017486415 0.0011971171 -8.12623e-05 0.0018014027 0.0009057081 0.0011374877 -0.0011357563 0.0014311966 0.00042397217 0.0006180092 0.0012209514 0.000590237 0.0021457227 0.0023948206 -0.0019472264 0.0020593447 -0.0023630597 -0.0001471246 -0.0022393097 -0.0008536792 2.3548275e-05 -0.00055333367 -0.00015748193 -0.0016665477 0.0014025344 -0.00032193385 -0.0024561337 -0.0014399136 0.0011659012 0.0022045919 0.0006922638 -0.00083325343 -0.0017446083 0.0009224385 0.0016054593 -0.0014952895 -0.0020337638 0.00047994236 -0.0012485938 0.0003572907 0.00026706015 -0.0021328737 0.000915863 0.00070171437 0.0015674164 5.586968e-05 0.0022025271 0.0010888926 -0.00029962024 0.00051917904 0.00016855724 -0.0014975424 0.00026481823 0.0006034638 0.0012752712 0.0021872583 0.0016213455 -0.0014364232 0.0024854122 -0.0014600371 -0.0012184163 0.0005383034 -0.0008873747 0.0023464197 -0.0010098371 0.000741179 0.0001344227 -0.0002924257 -0.0020724707 0.0011601537 0.0011332224 0.0013219028 -0.0012565784 0.00040831883 0.0024082304 0.0003551657 0.0007576364 0.00073390105 0.0023645568 0.0010206328 -0.0020583733 0.0016712539 0.0023941 -0.00046932435 -0.00081651885 0.00012383827 -0.0014159154 0.0020935815 0.0015010042 -0.0007255561 0.0022317674 0.002251783 -0.001785317 -0.00077061885 0.0005206981 0.0011852175 -0.0007223149 0.0021394999 -0.0021714245 0.0015366155 0.0016387624 0.001287836 0.00028172706 0.00031548404 -0.00044580648 0.0024635175 -3.7521848e-05 0.0024397224 0.0007476982 -0.0013743168 0.0013249787 -0.0022347486 -0.0019223891 0.0012629065 0.0024348837 -0.0009813323 -0.0003849273 -0.0012469527 0.0004463034 0.0013411952 -0.00081064814 -0.0016479609 0.0010647427 -0.002277521 -0.0009683497 -0.002438686 -0.0021005648 -0.00014673779 0.0008027447 -0.00038210847 0.0013955897 0.00070580305 0.0002730929 -0.0015210962
등 -0.00018448597 -0.0008084401 0.0011970435 0.0002066362 -0.0014243204 0.0018949449 8.376653e-06 -0.0019937453 -0.0015584658 -0.00020778058 0.0015866801 -0.0007666175 5.790718e-05 -0.0019577262 -0.0020731369 0.0009891916 -0.0012002112 -0.002243553 0.0023541974 0.0005441055 0.0024556005 -0.0010302422 -0.0019153394 0.00033044606 0.00047919052 0.0012728809 0.00066266436 0.0010056545 0.0017654268 0.0021652807 0.0007779737 0.0022441894 0.0015494479 -0.00213472 -0.0015132407 0.0018704458 0.0023424593 -0.00080774614 0.0016576438 0.0019953744 -0.0019256962 0.0004166555 -0.0015245698 -0.0018375567 -0.0011886547 0.0020657068 -0.0019093147 0.0023371663 -0.0013874178 -3.2064036e-05 6.471662e-05 0.0009608436 0.0022055565 -0.0019383853 0.0023701047 -0.0020065086 -0.0017444274 0.0018145362 0.0011616485 -0.0004679651 -0.0017621012 0.0009814086 0.002015839 -0.0024843868 -0.00046056774 -0.0014086245 -0.0010447749 0.002284717 0.00083104457 -0.0019594952 0.0021594823 -0.0021635597 -0.00078606786 -0.0014950352 0.00010654876 -0.0019854065 -0.00019155125 -0.00020844855 0.0011653615 0.0020645342 -0.0016298075 0.0019995172 0.0012474671 0.0017174125 -2.3402075e-07 6.9444286e-05 0.0018727311 0.0019689274 -0.0024262853 -0.0022509643 0.0005641118 -0.0024864236 0.0019016203 -0.0015463792 0.0021930956 0.0023258284 -0.0018001593 0.0014197233 0.0007384749 -0.0013529463 -0.0013924203 0.0015387031 -6.790059e-05 -0.0010897637 0.0007410478 0.00039228023 -0.002227023 1.1483694e-05 0.00051668135 0.0019531487 0.0014423368 -0.0015699314 -0.0012288188 0.0017435262 0.001063182 0.0022436788 -0.0006481618 0.0021246094 -0.0017931334 9.324387e-05 -0.00011722543 -0.00020802769 -0.0013768515 -0.00041204898 0.0010794179 0.0022427666 -0.0016790851 -0.0015121186 0.0020798428 -0.0008281898 0.0022653267 0.00046823654 0.001346286 0.0011574227 -0.0013092683 3.9578743e-05 -0.00083580986 -3.6917038e-05 0.0012216591 0.0005998364 0.0024291214 -0.00044165985 -0.002118702 0.0012680503 -0.0010133259 -0.000626825 0.0010902985 0.002417739 0.0011850228 -0.00012624174 0.0018556985 6.7065506e-05 0.00030388156 0.0024850282 -0.0010803478 -0.0019317815 -0.00075431314 -0.0019877066 0.0015475127 -0.0015346784 -0.0019062941 -0.0021343774 -0.0018389755 0.0024107692 -0.0016363475 0.0024356658 0.00045615755 0.00038417734 0.0015858924 0.00043955646 -0.00038201653 -0.0013538394 0.0016620008 0.0016971179 -0.0013683538 -0.0019575392 0.0018933665 -0.001109162 0.0010824945 -0.0016380919 7.885841e-05 -0.00080385717 0.0022861324 -0.0014804726 0.0018066119 -0.00015597366 -0.002301908 9.289378e-06 -0.0007699223 0.0011423053 -0.0014617103 -0.00059904146 0.0015705682 0.0021596942 0.00034554733 0.0012261216 0.00084564596 0.0015206056 0.0007263877 0.0005077474
